907 100
， 0.003112189 0.0033440657 0.0005245578 -0.007820064 0.0025904637 -0.0010615069 -0.0016941037 0.0029239184 -0.0013656851 0.005627961 -0.0031723569 -0.0041131936 0.004035016 -0.00077710475 -0.0011847981 -0.0040397956 -0.0032489186 0.008740524 0.00418244 -0.00064434577 -2.1634723e-05 0.001019235 -0.0007178305 -0.0056019435 -0.0031212417 0.004286454 0.004644367 0.0022430238 0.004590378 0.0036033294 -1.5558271e-05 0.0009752214 0.00040016352 0.0025095455 -0.0022506316 -0.00026469887 -0.0026619046 0.004850888 0.0020533055 0.005638006 -0.006883037 0.0063230284 -0.0073561505 -0.0018937949 0.0028821134 0.0049246326 -0.0019039095 -0.0014827838 -0.0014040027 0.0029629795 0.007283181 0.0037248782 0.004886892 0.0044899555 0.0026141126 -0.0033398725 0.0032478264 -0.0018245238 0.0016337383 0.0064687002 0.0031982835 -0.0054156203 0.0017522152 -0.0021171477 -0.0074089114 -0.0077286665 0.005548244 0.0024689855 0.008240533 0.0036281068 -0.0028400158 -0.0017144658 0.0073829535 -0.0050299033 -0.00013805457 -0.0017461324 0.0035383962 -0.007590822 -0.004241686 0.0010659331 0.0013278057 -0.00066875195 -0.0045945877 -0.003466782 0.00015290297 -0.0020474542 -0.0015769143 -0.005033224 -0.002594132 -0.0048998646 -0.0016400518 -0.0068656676 -0.00054955384 -0.0021519929 -0.0026100082 0.0034829606 -0.00718283 0.0024799365 -0.0045397594 -0.0041933064
的 0.0024109343 -0.0048113028 -0.002615607 -0.0012569521 0.0005034585 0.0006952347 -0.0008223927 0.003131395 -0.0030059787 0.0042680493 -0.007085801 -0.0009000916 -0.0026932354 0.0021671373 0.0030951407 -0.004025268 0.0033811834 0.005334142 -0.0034150982 0.0044089784 -0.00021800563 -0.0041337563 -0.0050924215 0.0024591237 0.00537873 -0.00429944 0.002553547 -0.0050559193 -0.0036920025 0.003524193 -0.004980291 0.0028608365 -0.0023567548 0.007333334 -0.0023047845 0.0005360862 0.0031811786 0.005778474 0.0025032132 0.0024909484 -0.0040036966 0.0051659984 -0.004752279 -0.0014838751 0.0001617853 0.003487969 -0.0008944893 0.0009926527 0.0019364711 0.006192948 -0.0027148866 -0.004532206 0.002674884 0.004188626 0.0014700835 0.0036090754 -0.0028920954 0.004077324 -0.00020454256 -0.002715411 0.0032691013 6.316686e-05 -0.0053474833 0.0023670634 -0.00011326004 -0.002008622 0.0027402237 -0.0018055378 0.004869808 -0.0014450282 0.002593123 -0.0022547643 0.00044353175 0.0015142661 0.0027868005 -0.0025003143 -0.0020035787 -0.0015044218 -0.002378751 -0.0037942939 -0.001029949 0.0028513311 -0.0031852464 -0.0041520405 0.0014564189 0.00011740883 -0.005281224 -0.0030259744 0.001145976 -0.0002441509 -0.0046155625 0.0014289768 -0.004924255 0.004581632 -0.0058327806 -0.0033612547 -0.0018428933 -0.006119385 -0.0026996457 0.004096173
我 0.0030920678 0.0022525773 -0.002862845 -0.0053430484 0.0041592433 0.0011615034 -0.0028816648 0.00048930943 -0.00034327444 -0.0032088018 -0.0039349203 0.003260657 -0.0036179435 0.004310476 0.0046490217 0.003138063 -0.00017768508 -0.0013699143 0.0036003732 0.0024278907 0.0028856336 0.0020935023 -0.0027831553 -0.0048601725 0.00093026884 4.113848e-05 0.004827612 0.0022804178 -0.0041382667 0.00300251 0.0045225346 0.002143946 0.00239667 -7.398086e-05 -0.0011295197 0.0017311372 0.004845399 0.0031687643 -0.0004067629 0.00301841 0.0030286303 0.0036841363 -0.0033757198 -0.0049097002 -0.0008035505 0.0002584607 -0.0019524649 -0.0016462716 -0.0016813257 0.0023277737 -0.002593829 0.0038034318 -0.001960142 -0.0004545675 -0.002455492 -0.00015628085 -0.0029160602 -0.0019216749 -0.0002080325 -0.00035742385 -0.0038704171 -0.0019074294 0.0035246178 0.0004282532 -0.006012638 0.00089638476 -0.002533166 0.002439871 -0.000723416 -0.0014462029 -0.0039129634 0.0008529209 -0.0012049678 -0.0020284404 -0.0035197376 0.0006816438 0.0031411937 0.002551166 0.0034411966 -0.005121474 0.0014581712 -0.00090209855 -0.0006116658 -0.002657098 0.0048906426 -0.00044761947 -0.0033756031 -0.0009066465 0.002205804 -0.004468239 0.0039647752 0.000739346 -0.0026991507 0.0046174875 -0.0018078764 -0.0006167536 -0.0059317155 -0.0061090514 0.0040604873 -0.0010639067
了 0.0018033781 -0.0032424235 0.003966489 -0.0014760478 0.005707494 0.0021314223 -0.0026057204 -0.0005988083 -0.0020345338 -0.0008188287 -0.0042730393 -0.002039678 0.004252983 0.00070656766 -0.0028235803 0.0031974148 -0.003413436 0.005018608 0.0033436697 -0.0040863226 0.000688787 -0.0014305513 -0.004714805 -0.0032523123 0.0027950865 0.0034001193 0.004039683 0.0010922569 -0.0031316907 0.005416451 0.0028316935 4.382738e-05 0.0010788039 0.005685426 -0.0053508445 0.0030090143 -0.00031789058 0.00535617 -0.003686651 -0.0017865687 0.0019193492 0.0048937295 -0.0057941414 0.004052634 0.0023632348 -0.003871355 -0.0031910092 0.0026199452 -0.002925326 0.0065091313 0.0016693068 -0.00025614773 0.0027224056 -0.0030083696 -0.0042165066 -0.0030141734 -0.004674561 0.0043056644 0.0010557874 0.006276251 -0.005586069 -0.0017140413 -8.724394e-05 -0.003118066 0.00064390874 -0.0015593389 0.00482627 -0.0027762945 -0.0014819341 -0.0014895931 -0.0007028231 0.001241148 0.0062323334 0.002156315 0.0031323505 -0.0032850266 -0.0026876733 -0.0058268565 0.00082186656 -0.0029587257 -0.0026670787 -0.0021722235 -0.0015001198 -0.003124571 0.0010059386 -0.0001765214 0.0010255777 0.0013923856 0.00052417704 0.0027762107 0.003500303 0.00149887 0.0007569495 -0.0028047552 -0.0051220558 -3.0796058e-05 -0.0011297106 0.0010951959 0.0018088378 -0.0049273893
你 -0.0037633106 0.004129338 0.0027212212 -0.0036356975 -0.000952443 0.0049780672 0.00026146547 -0.0015639985 -0.00266597 0.0011319628 -0.0065145027 -0.001850673 0.0028165372 -0.0013962205 -0.0019285756 0.0026251164 0.001462352 0.0008293701 -0.0010237354 0.0021558518 0.0037117496 0.004528789 -0.0011268388 0.0036526266 -0.002436907 0.002697408 -0.0017234175 -0.004100869 -0.0026141487 -0.0017061589 0.0031139355 0.00034342826 -0.00095158484 0.0018632363 0.00050803536 -0.0030615411 0.003904023 -0.0003557167 0.0013427851 0.0013255562 -0.005294378 0.0023203052 -0.0023654767 0.0017339035 -0.0037120793 0.0042815176 0.0041290172 -0.0023085165 -0.0038136544 0.0021006425 0.0013563095 0.0011296087 0.0022263448 -0.0036135097 -0.0008348887 -0.0029238898 0.0032888886 0.0037864072 0.005194795 0.0058245095 0.0034978657 -0.0050483556 -0.0043296823 0.0032328502 -0.0048479117 -0.004476921 0.00546429 0.002755009 0.0036957008 0.0048529357 -0.003845018 -0.0022998482 0.004072814 0.0040529547 0.0046779974 -0.0013236088 0.003106963 0.0022612084 -0.0011058917 -0.0040612426 -0.003003722 0.004628927 0.004315979 0.002540938 -0.0031642893 -0.0052746236 -0.0037140956 -0.005022749 -0.0035301056 -0.0037848698 -0.0021219866 -0.0031133345 -0.0022808383 -0.0022952114 -0.002071984 -0.0025325438 0.00097572256 -0.0025907948 0.004241701 0.00014548222
！ -0.00040755497 0.001697139 0.0023355524 -0.0055592335 0.0062789954 -0.003863254 0.0026748157 -0.002692079 0.0025395865 0.004149908 -0.0013145745 -0.0026390727 0.0009159847 -0.0009296443 -0.0034527003 0.0017465635 0.0027277395 0.0036333606 0.0021174094 -0.0047305073 -0.0006574779 -0.0005643331 0.0008532487 -0.0033706336 -0.001989152 -0.0040941853 -0.0040721307 0.0026701945 -0.0004971725 0.0006499633 -0.0037832644 -0.003238108 -0.002534206 0.0018345813 -5.5539105e-05 -1.6226253e-05 0.0023318569 0.00072738825 0.0027433762 -0.00040887986 0.0012056913 0.002252376 -0.0027441385 -0.0023030206 -0.0013324006 1.9727238e-05 0.005618889 -0.0032916304 0.0043567335 0.0011446623 0.0042019333 -0.00023718954 0.004932215 0.002913285 -0.0058619105 -0.0022919492 0.0014191418 -0.00046477158 0.0055700657 -0.0030347642 -0.0044158334 -0.0005367389 -0.0052068094 -0.001973449 -0.0038535662 0.0014382497 4.318412e-05 0.001981373 -0.0024690616 -0.0028933084 0.0035434265 -0.0044943476 0.0051150634 0.0006701759 0.004992591 0.0013067194 0.0026664748 0.0030374778 -0.0055267112 0.0041071805 -0.0020922245 0.0013700536 0.000262623 0.0027755233 0.0048188795 -0.0023962762 -0.00028060222 -0.0021213924 0.00081308803 -0.0032171928 -0.001078174 0.0019162074 -0.0007403349 -0.0039716642 -0.0033349341 0.0023410763 0.0029288658 -0.00011546295 -0.0035419606 -0.0009419247
。 0.0013382819 0.0027673615 0.00038977092 -0.0012414457 0.0016166678 -0.0026198167 -0.0023716849 -0.0029245943 0.003195295 0.0024375708 -0.0007728644 0.0022656077 0.004275286 -0.0013092386 0.0010169096 -0.0014426765 0.0012826275 0.0059376583 -0.003537916 0.0025415337 0.0013385453 0.00073337555 -0.0006816838 0.003203782 0.0039234413 -0.00097033894 -0.0032146936 -0.003698927 -0.003836811 0.0057611917 0.00403538 -0.0022226134 0.0005945999 0.0014361899 0.0011719726 0.0034860373 0.0005566978 -0.0016901786 0.0021183058 0.0018515879 -0.0033330081 0.0014959158 0.004269122 0.0024737802 0.0040712343 0.0030405922 0.0039706235 -0.00020246304 -0.0006707297 0.0020168882 -0.00125976 0.0034372362 -0.0028807546 0.0010006202 -0.0014486266 0.0009441221 0.002712608 -0.0043387795 -0.0014933028 0.0028428775 0.004369854 -0.00059721025 0.0038099303 -0.0026421822 -5.972964e-05 0.00040023227 0.00045953348 -0.003006303 -0.00090345065 -0.0033487643 -0.0007113113 -0.001833259 -0.0005550205 0.0010864929 0.004956112 -0.0012224662 0.0029685874 -0.0057005896 -0.0024749718 0.0008930634 -0.0008480427 0.004073762 -0.0025905448 0.0037508344 0.004456385 -0.0025847044 -0.003694475 -0.004742877 -7.45888e-05 -0.0036709735 -0.004544483 -0.0045489096 0.0039600693 -0.0027140502 -0.004392168 0.0033557075 -0.001882355 0.0034406232 -0.001824715 0.0011810141
是 0.004903657 -0.0028790769 -0.002386151 0.0021008004 -0.00023965887 0.003930374 0.0013344944 -0.0013248484 -0.004777308 -0.0008034941 -0.00125418 -0.0003620707 -0.0009595001 0.004615214 0.005359004 -0.002856933 -0.0008299226 -0.0010399723 -0.004097933 -0.0020406563 0.0016039254 -0.0014574028 0.0036685632 -0.0050399867 -0.00054821954 0.0020142621 0.0021041941 0.0045660622 0.00275665 -0.0010628204 0.0032102892 -0.0043988186 0.004668234 0.004755549 -5.318586e-05 0.0025417092 -0.0035484142 -0.001198434 0.0029238455 0.00070903765 -0.0012585075 0.00061310123 -0.0053329444 0.0010281309 0.003665112 0.0022810563 -0.0038052418 -0.0016831371 -0.002958231 -0.002877245 0.0011567632 -0.002592643 0.0025082899 0.003703233 0.0021394212 -0.0013854158 -0.005003603 -0.002789591 0.0029910514 0.004789472 -6.8246394e-05 0.0011980768 -0.0016837989 0.0026647644 0.002046174 -0.004784425 -0.00033683123 -0.0010679183 0.00202297 -0.0015655174 -0.0024654705 -0.00022115998 0.0037562952 -0.00360895 -0.0035341303 -0.0040126136 -0.00253115 -0.004219664 0.0025660507 -0.002447641 0.00077909103 -0.00082216866 -0.001543989 0.0040780148 0.004679337 0.004104173 -0.0018948102 0.0029947541 -0.0051892786 -0.0044174525 -0.002194895 -0.0035982039 -0.003931796 -0.001171576 0.0018447448 -0.0041671344 -0.00027248886 -0.002478313 0.0027442875 -0.003436306
都 -0.0032881012 -0.0007204963 -0.0015293314 -0.004655788 -0.002586015 0.0004905882 -0.002740831 0.003858707 -0.00237602 -0.0034737794 -0.0020082598 0.00085444597 0.00455775 -0.0008730286 -0.00065733556 0.0018037874 0.0032713795 -0.0011156081 0.0008025495 0.0015970926 0.0031824221 0.004523761 -0.0042890566 -0.004360937 0.0030930843 0.0050604437 -0.0026884507 0.00034027395 -0.004819391 0.0015033139 -0.004464001 -0.0026162458 -0.0004890536 0.0059856893 -0.00018732387 -0.0040728385 0.0013439666 0.0035104654 0.0039229803 0.0053555253 -0.00061519985 0.0058950856 -0.0026830137 0.0021114927 -0.002622888 -0.00017252304 0.002497633 -0.0008205314 0.0032022493 0.0030977519 -3.5965386e-05 0.0010217135 0.005830964 0.0041662147 -0.0019485836 -0.0036809905 -8.144563e-05 0.0030122374 0.0002533937 0.0049196 -0.0017035658 -0.0022323802 -0.0035543423 -0.00038294913 -0.002136308 -0.0021770927 0.0054279245 0.0013351348 0.006958397 0.0037381018 -0.002880855 0.0027721897 0.0049925772 -0.002459948 -0.0011182814 -0.0036371127 0.00373927 -0.006364585 0.002778557 0.0031971557 0.0043153525 -0.0022865732 0.0043209223 -0.00031718495 -0.004125542 -0.0056763184 0.0006935475 -0.0035339308 0.0024971766 -0.0039938106 0.0021078833 0.0015844182 0.0009838556 0.0033919488 0.0018417359 -0.0017551606 -0.0049625426 -0.0060430267 0.004043438 0.00026214874
爱 0.0005343488 0.003115452 0.004293366 -0.0016557537 -0.003582795 -0.004588737 -0.0037754625 -0.0025473782 0.0014859933 0.004938818 -0.0057547498 -0.0014222533 0.00084839633 0.0036225596 0.0012407083 -0.0037342703 -0.0034152912 0.0036214786 -0.0034993116 0.004521201 0.0051665273 -0.00483901 -0.0028345918 -0.0022982347 -0.0024057582 0.003130253 0.005295992 0.0006691022 -0.0028342162 0.0035715927 -0.0044621713 0.004220174 0.00042065314 -0.00028700812 0.00084275083 0.002032289 0.0044690343 -0.003724046 -0.0048298384 -0.0025812262 -0.004949869 -0.0047030454 -0.0018919598 0.0033555042 -0.004486616 -0.003880837 0.002832789 -0.0032090247 -0.0017221865 -0.0027807774 -0.0017419894 0.0030424914 0.0018874211 0.004685978 0.0010811847 -0.0012819719 -0.0014253949 -0.00052643043 0.0018139152 0.0035953503 0.002047417 0.0027850503 0.0027101382 0.00357779 -0.005607868 0.0040671406 0.0053578555 0.0010743352 0.0009320691 0.0012946767 -0.003801986 -0.00036247142 0.0037718022 -0.000498648 -0.0012100991 0.0043584183 -0.0029790467 0.0015503172 -0.0013907893 0.00039051953 0.0041252 -0.0028820874 0.001941635 0.0027947887 -0.0033132958 -0.00062152435 0.0041835355 -0.0016729006 -0.004322067 -0.0013251445 -0.0017952374 -0.005371029 0.001728022 0.0029789177 -0.0007874944 0.0037545916 -0.00235825 -0.0006314372 0.004182658 0.0020912567
人 -0.00271064 -0.0030871194 0.0026105577 -0.004819297 -0.003908521 -0.0042762505 0.0009873846 -0.004318125 -0.0033184083 0.0042314 -0.0038391114 -0.0017003358 0.003741669 -8.912758e-05 0.0047175246 -0.0048883613 0.00012690108 -0.00067083596 -0.0020537898 -0.0017561851 0.002326452 -0.0028595047 -0.0010713369 0.0021718442 0.0023263337 -0.002573717 -0.0013046969 0.00097400276 -0.0044105817 0.0046956157 0.004099633 0.00475152 0.0041155387 0.006024649 0.0022750201 0.0010478473 -0.0004471864 -0.002233757 -0.0025870702 -0.0008419756 -0.0031353203 0.0044916454 0.0036844583 0.0023837525 0.0050372607 0.0017011681 0.004441836 0.004139043 -0.0009262364 -0.00030468378 -0.0016907741 -0.0011661047 0.005791973 0.0050911657 -0.0015202881 -0.00040499712 0.00070137624 -0.0016359153 -0.0037285816 -0.0018299374 -0.0040176264 -0.0027825248 -0.00073968817 0.0015536292 -0.0044273883 -0.000515318 -0.0024499884 0.0007706757 0.0034630704 0.00062721706 -0.002432926 0.0045352997 0.0030769235 0.0005961333 0.0051631914 0.00067383726 0.0042204424 -0.0059576198 -0.0032311562 -0.0040187477 0.002522636 0.001593351 0.00043516885 -0.0022928475 -0.0042218855 -0.005456381 0.0021500636 0.00068231224 -0.00050316495 0.003116581 0.0033363255 -0.0035276532 -0.000585055 0.0025964547 0.0022970252 0.0018840841 0.0018711216 -0.0033179836 -0.0032008179 -0.0016673919
不 0.0044120657 -0.0017896461 0.0054432303 -0.0020896269 0.0053877044 0.002200281 -0.004964314 0.003545824 0.0016108339 0.004222507 -0.0037876184 0.0011580283 -0.0018922996 0.0019866945 0.0021767505 -0.0021651713 0.0014830771 0.0016369226 0.0013372932 -0.0042431527 0.0023129254 0.00021217653 0.0033722646 0.0014440572 -0.0024275093 2.6527918e-05 -0.002565143 -0.002100981 0.0029482087 -0.0022646186 -0.0026693766 0.0041773845 0.0024010513 0.0012924708 0.001381828 0.00073243794 0.0005377541 -0.0038715408 0.003594807 0.004962944 0.0030621109 -0.003188923 -0.0012081533 0.0047961874 0.0049781124 -0.0040262053 0.0045537692 -0.0014473354 0.0018019595 -0.0035683047 0.0019764542 -0.0026879774 0.004722409 0.0023661356 -0.0021582504 -0.00078992266 0.004223283 0.00096152484 -0.0020146843 -0.0023508926 0.0019219075 0.0039488934 -0.00082576135 -0.0009340087 -0.0030310005 -0.0007406094 0.0034687663 0.002059729 0.0043500876 0.0035118144 -0.0044707996 -0.0011116968 0.0013627288 0.0024695364 0.000358161 0.003201704 -0.0021353725 -0.00015553807 -0.004416461 0.00042678573 0.001720529 -0.0001413574 -0.0021948565 0.00053272897 -0.0046056486 -0.0047884807 0.0044816793 0.0045290026 0.0012911329 0.0028088877 -0.0024192708 -0.00407291 0.004208255 0.0046048053 -0.0035202692 0.004614075 0.0019133851 -0.0028771432 -0.0004621499 -0.00060882233
心 0.0019650534 0.0019773152 0.0045986245 0.0043283976 0.0051073367 -0.001432973 -0.00078674103 0.0022914654 0.002799438 0.0047962996 -0.0049384907 -0.0007729641 -0.0013537849 0.001175928 0.003730999 -0.001784162 0.000864178 -0.0034296315 0.0043572583 0.0036267384 0.00089749385 -0.0020886057 0.0038564675 -0.0034256694 -0.0049714 0.0032477097 -0.0013846505 -0.004683001 0.0001792643 0.001361709 0.00032617536 0.003066491 0.00052595546 -0.0030931146 0.0018307798 -0.0018243244 0.0019272121 0.0047193556 -0.00077633595 -0.0024160251 -0.0045331926 0.000391381 -0.005301357 0.0038572527 -0.0018939781 0.00052987866 0.0048819375 -0.00390815 0.0021486708 0.0005094829 -0.0035249107 0.0050562546 0.0036667897 -0.00200448 0.0007381192 -0.0019433056 -0.0015615647 -0.0012707686 0.00490581 -0.00032676206 -0.0052252878 -0.0043798233 0.0008061138 0.0004669127 -0.0043175244 0.0030283188 -0.00357978 0.0024213544 0.0011068424 0.0010177527 -0.0035707988 -0.003972319 -0.0029958747 -0.0009213963 0.0022398122 5.782815e-05 -0.0038654436 -0.0038924268 -0.0029121765 0.002482117 0.0033111498 -0.0037934803 0.0037258263 0.004315812 0.0018080164 0.001829079 1.7411787e-05 -0.00059245666 0.0033260311 -0.00028249828 -0.004999942 -0.003734779 -0.0043732305 -0.0038363072 -0.0018712812 0.0014392785 0.0029959031 -0.0030415524 0.0036907087 -0.0036950698
就 -0.0028756296 -0.0001550389 0.00071064907 0.0022586402 0.0033298954 0.0032042 0.0035703636 0.0051277224 0.0012790627 0.003610803 -0.0031435513 -0.002763989 0.0018637239 0.0024732514 0.0018383285 -0.0046388167 -0.0011288944 -0.00037980996 -0.004254124 0.0018669574 -0.0028751036 0.003293426 -0.002482797 -0.0044329637 -0.0031963682 0.00055654976 0.0041077803 0.0015104174 0.0019533932 0.0052907607 -0.0024527025 -0.0041730125 0.0037121621 -0.003629778 -0.0012374901 -0.004406081 0.0035850594 0.005377021 -0.001383176 0.0034531597 -0.0053806696 -0.0011550696 -0.00061669113 -0.0026767054 -0.0031298012 0.0016690495 0.0043022064 -0.0019283685 0.0019088618 0.00091589324 0.0031637428 0.0021195654 0.0018122469 -0.0016977077 -3.088693e-05 -0.0017476326 -0.0022916375 -0.0041794134 -0.0037011472 -0.0027909186 -0.00030222212 0.0019679866 -0.003997358 0.0033882868 0.0022862416 -0.0027148037 -0.0026801997 0.004991385 0.0016953957 -0.0033548765 0.0027302776 -0.002200759 0.0038850436 0.0025479884 -0.0006693323 -0.004674883 0.0011862292 0.0038026955 -0.001525775 -0.0021613971 -0.0010709313 0.00080871757 0.0020354178 0.0037904817 0.002373964 0.0035759974 0.0036036156 0.0011402871 0.0032087814 0.001222499 0.0021919508 -0.0020053356 0.0029350037 0.0032699555 0.003991633 -0.002508523 0.0027151112 -0.002827245 -0.0044121537 0.0015173992
啊 -0.004157483 -0.0034199045 0.0040540695 0.0013857625 0.0028805684 0.0035075597 -0.0039413143 0.004581635 -0.0038536622 0.0032560234 0.0031658944 0.0012792291 -0.0024953487 0.0026477003 0.0026654666 0.0013963997 0.0016035339 0.004288693 0.005157196 -0.0028736824 0.0029114026 0.0008710268 -0.0036783628 -0.0028251694 0.0041427854 -0.0014050185 -0.0030783927 0.0005966344 -0.004949883 0.005181813 -0.005099214 0.0030528447 0.002908381 0.0023550068 0.003019064 0.0043261293 0.004945396 -0.00051380665 -0.001645746 0.004045776 0.0012132755 0.0053223507 -0.0053089806 3.8683414e-05 -0.004252753 0.0052093533 0.0002852179 0.0025243121 -0.003258351 0.0020731213 -0.00052065856 -0.004428497 0.0020386146 -0.0046753497 0.0018568782 -0.00026880758 0.0010206413 -0.0020218033 0.001061386 -0.0007151382 -0.004801979 -0.0039923266 -0.0021773204 0.0016731421 0.00035047272 0.001473465 0.0012206263 -0.0026045118 0.0006900956 0.0018650743 -0.0023971326 0.0028577184 0.0020516461 -0.0017810395 0.00044103476 0.002449506 0.000257589 0.0006792225 -0.0015045747 -0.00229569 0.0008757237 0.0004640698 -0.0019093927 0.0026685237 0.0005540702 0.0018088225 -0.0021612914 0.001302222 0.0020502855 -0.0006492244 0.0034626087 -0.0048760907 0.0012987868 -0.0026480432 -0.0033734909 -0.003039474 -0.003682074 -0.004136275 -0.0034468782 -0.0016698112
她 0.0044046394 -0.0050214613 0.00056932005 0.004568423 -0.0020247493 -0.0033974976 0.0028219342 -0.0009037644 -0.0024551519 -0.0027543488 -0.003469393 0.0026984992 0.0025481717 0.0034103545 -0.004393206 -0.0026881834 0.0034246044 -0.003569449 0.0035733532 -0.0016811178 -0.0011093598 -2.6066971e-05 -0.004660342 0.0010064744 0.00012025734 0.00074097444 0.0023018522 0.00187552 -0.0022560302 -0.0026209466 5.546013e-05 -0.004680961 -0.0041359076 0.0006297054 -0.0008565701 -0.004063352 -0.004758508 0.0015611203 -0.003277699 0.0030121834 -0.0004293848 0.003223579 -0.0046781464 6.393583e-05 -4.231829e-05 0.0010316366 0.0018690372 0.0004232031 0.003720186 0.0015394002 -0.0038874177 -0.0013616984 0.0035760594 0.003546721 -0.003457752 -0.0039972933 -0.0044834698 0.0045342464 0.004746195 -0.00018584302 -0.0036696957 -0.002417123 0.0026336706 -0.0014781847 -0.004804761 -0.004901724 0.00045697525 0.0042451625 -0.0017460191 0.003996883 -0.0006423564 0.00026953788 0.0007867464 -0.0041231713 0.0011173155 0.002677041 -0.00014707503 -0.0017717732 -0.0009157333 -0.0032338374 0.002185743 -0.004446794 -2.2316656e-06 -0.0030596978 -0.0049516396 -0.0030425738 0.0032083725 0.000106736654 -1.3911367e-05 -0.0045437464 -0.00045698186 0.00277054 -0.0011299022 0.0003086928 0.0028129837 0.0030582482 0.0044091046 0.0017624302 -0.0046660993 -0.0051031825
杨蓉 -0.0016686512 0.0020318164 0.00072499865 -0.0041968715 0.0045818663 0.0009185014 0.0028088803 -0.00016356175 0.0041875257 0.0043268045 -0.0046925982 -0.0047133565 -0.00078308786 5.5742777e-05 -0.0019870377 -0.00219091 -0.0041321837 0.0012474543 -0.0010707586 0.00031353545 0.0029670272 -0.0010793572 0.004505576 0.0034046173 0.0012557369 0.0043487772 0.0037309504 0.00018960977 -0.00021865236 0.0022387565 0.001723094 -0.0039008097 0.0030888077 0.00075998734 -0.0053245383 0.0034383456 -0.0040622605 0.0005756354 -0.0046351966 0.004876596 0.0014807804 -0.0041188216 -0.00061379035 0.0048678527 -0.0014750999 -0.0007043604 -0.0015737289 0.00417289 0.0050495532 -0.0043430002 0.000666736 -0.0034415508 -0.0033415323 0.0007284694 0.0021480825 -0.0024702542 -0.0016377281 -0.0015842977 -0.0036349036 0.004057009 -0.0031680842 0.001607485 0.0009345215 0.0034257805 -0.0016823709 0.0035532352 -0.0041746977 -0.00040117884 0.0019303595 0.0047629103 -0.003845827 0.0007496182 0.0018549241 0.003745404 0.0042351647 -0.003529146 -0.002571927 -0.004551907 0.0043446547 -8.9409805e-05 0.00030040226 0.00095679157 -0.0027325118 -0.0045592617 0.0023557006 0.0031284771 0.0041191457 -0.0037787193 -0.00043367204 0.002795832 0.0020831875 -0.001577508 -0.0010816798 0.0018698904 -0.0008299164 -0.0046094265 -0.0016813923 0.0030091582 0.0049526584 -0.00027555312
加油 0.0011910547 -0.00090827094 -0.003723089 -0.0034172894 -0.0028436957 -0.0028659909 -0.00044212633 -0.0047993185 -0.0022854453 -0.0031617593 0.00289115 -0.0037423798 0.003307221 -0.0040006866 0.0017158237 -0.0039038518 0.004028584 -0.0017012773 0.0036821743 -0.0025392892 -0.0041068974 -0.0022778325 -6.15423e-05 -0.004453951 -0.00037503184 0.001336423 -0.0015345782 0.00027211977 -5.5078613e-06 0.0053058644 0.0028402475 0.0029594526 0.0035597777 0.0020383259 -0.002326813 0.00051916204 -0.001484422 0.0014056145 0.0024016406 0.002025625 -0.003424893 -0.00014816195 0.0025080289 -3.169006e-05 0.002204233 0.00239442 0.0050352956 0.0032371918 0.0028367836 0.0015773656 0.002859478 0.003323795 -0.0009959219 0.001554363 -0.0018548289 0.00054413313 0.00276284 0.003823759 -0.00060920697 0.003119438 0.004041778 0.0015133397 -0.005265893 -0.0021036114 -0.0004019806 -0.004724005 0.0025681823 -0.0017489922 -0.004105711 -0.002864671 0.004203768 0.004922986 0.0043025357 0.002506272 -0.003065487 0.0042468784 -0.0036382724 0.0021332607 -0.0004845678 0.0025158501 0.00016732885 -0.0028091187 0.00075587846 -0.0032847768 -0.0040816953 -0.0027708593 -0.00043877042 -0.000825811 0.002974927 0.0038494796 0.003819682 -0.0032100235 0.0020027994 0.0028424058 0.00175154 -0.004050568 -0.004643681 -0.0039756796 6.6259854e-05 -0.0011965076
一个 0.002750587 -0.0039031578 0.0022216288 0.0015293284 -0.0010004535 -0.002985562 0.001660737 -0.0013797447 -0.0020145774 -0.00037680665 0.0028100668 -0.00061687076 -0.00014064979 -0.0016509072 0.0040431367 0.0026070268 -0.00040710633 0.0047062216 0.0024567635 0.0037774676 0.0014679632 0.001017592 0.0035981692 -0.0040487773 -0.0031459029 -0.0047850837 0.001256797 -0.0037468344 -0.0013527719 0.0050744903 0.0009947222 0.004708273 0.004341688 0.0048418865 0.0039327363 -0.0024658004 0.0032371301 0.002536833 -0.0050823563 -0.0023982679 0.004219946 -0.0041126553 -0.0018055434 -8.090824e-05 0.0009862008 0.004165971 0.0051493486 0.0035687315 0.0019123098 0.0007489849 -0.0025190858 0.0030885462 -0.0012004348 -0.0013972817 0.00050521997 0.0019497382 0.0017423114 0.0012295976 0.0022691677 -0.0025619988 -0.0030473378 -0.0045118006 -0.005414787 0.0007366427 -0.0035344232 -0.00024499118 0.0013976559 0.0029177908 0.0032798762 0.0037644329 -0.003676308 0.0039898613 0.00031528753 -0.0013537833 0.0038565677 0.0031597796 -0.004175354 -0.0057342453 -0.0040811985 -0.0018769926 -0.00070894056 0.0025077567 0.00057600386 0.0011078842 2.9198811e-06 -0.003908724 0.00219746 -0.0025706158 -0.0025014882 -0.0058411136 -0.0005571782 -0.0037218754 -0.0030445466 0.004382307 0.002974386 0.0006930248 -0.0033445407 0.0013759009 -0.0037670166 -0.0045446004
？ -0.00038639555 0.0037178434 0.000115061375 -0.0006291508 0.0044667847 0.0036009564 0.0013759349 -0.0036852371 -0.0023795143 0.004764712 -0.004783923 0.0046620504 -0.00059441227 0.0035218683 -0.0013895077 -0.0037282354 -0.0009776597 -0.0024605456 0.00011504526 0.0038390295 -0.0038364213 0.0012586702 0.004232806 0.0020983093 0.0050981445 -0.0039538397 -0.0031241297 -0.0046297046 0.0014669297 -0.0022911474 -0.0038805765 0.0032768224 0.0003927076 0.00407511 4.585305e-05 -0.0040896414 0.0027752563 -0.0026118427 -0.0020556003 0.0022978815 -0.0032855968 0.0027902785 0.0020286224 0.0011494142 0.0047133043 0.0034129634 0.00034988517 0.0020574345 -0.00034574143 0.004038974 0.0016218773 0.002739915 0.0020396484 0.0015521154 0.0005565554 0.0016822541 0.00281723 0.0027468037 0.0016731275 0.0011851569 -0.0003759533 0.0020903691 0.0017950038 -0.0028012828 -0.0027079901 -0.0016731297 -0.0023537239 0.004613582 -0.0008999411 -0.002901448 -0.0036976645 0.0035785013 -0.0032547454 -0.0013168746 -0.0042631337 0.0036092314 0.00014996492 -0.0001580584 0.0029879045 -0.004243122 -0.003498271 -0.003748014 0.0036443819 -0.0030832386 0.0024912767 -0.0018781847 -0.0044076736 0.0033518954 0.00063499995 -0.000930379 0.0033772064 -0.005306679 -0.003693594 -0.0014005459 0.00033324194 -0.0044509447 0.0042063063 0.002998411 0.0046053138 0.0024559437
也 0.0025117053 -0.0021328053 0.0040833615 -0.0011584592 0.0047516157 0.002270019 0.004163052 0.0034206617 -0.002631203 0.0035340139 -0.006362192 0.0029366207 -0.0019768304 1.0441008e-05 0.0038926124 0.0032005797 0.00021411141 0.0020215714 0.005476321 -0.00016728138 -0.00010819456 -0.0031608606 -0.0052752886 0.003678616 -0.0029152073 -0.0014268664 0.0002548088 -0.0049212114 -0.0041003656 0.0021548748 -0.0019897977 0.0023276177 -0.0007203318 0.0044298647 -0.00020870811 0.0046560653 0.0028604558 0.004208117 -0.005043153 -0.00031671557 -0.0026884237 -0.002411376 -0.0050453497 -0.0011448435 -0.0006833901 6.982291e-05 0.004925802 0.0010577489 0.00435909 -0.0007222054 0.0016046272 0.0043597054 0.0031810177 0.0022816646 -0.0016775255 -0.0009232444 -0.00446687 -0.0032226238 0.0034707538 -0.0035345915 0.0013293179 0.0021178552 -0.00080291094 0.0033929832 -0.0047127656 -0.0029823484 0.0017750354 0.0050261836 0.0065258704 0.004069713 0.0006612918 -0.001229939 -3.389769e-05 0.0008207899 -0.0013394037 -0.003339948 -6.459087e-05 0.00048776547 -0.0024919265 0.001278319 -0.0038220072 -0.00085331703 0.0034682958 0.005229231 -0.0021394978 -0.0055162874 0.0039412905 0.0011933027 -0.00224891 -0.0039310255 -0.0016223973 -0.0017750135 0.0024077315 -0.003985084 0.0015039538 -0.0014414078 -0.0043813353 -0.0034186104 -0.00011941003 -0.004234838
… -0.00054756063 -0.00030769667 0.002929659 0.0035722344 -0.0022296067 -0.004417698 -0.002244673 -0.0026586214 -0.001719591 0.0011452498 -0.00021329198 -0.00036964193 -0.0019185418 -0.00022404845 -0.0011349901 -0.004241207 -0.0022836716 -0.0024406656 0.002799786 0.0051267385 0.002612098 0.002492488 -0.0043060957 0.0012558893 0.00045846953 -0.0005106473 5.773567e-05 0.004415399 -0.0006643838 0.00083119614 -0.000119550066 -0.0022325278 -0.0032978773 0.0012332776 -0.0012362355 -0.0023657284 -0.0021521463 -0.0026625404 -0.004501096 0.004070881 -0.0013100479 0.0022711994 0.0029721807 0.004673712 -0.00051229086 0.0014469861 0.0044914377 -0.00432838 -0.00077839656 0.0039389427 -0.0028448866 -0.0038619726 0.0020708342 0.0018975155 0.0040994594 0.004061466 -0.0025157286 0.0007524184 -0.0003481127 -0.0007575566 -0.005073457 -0.0057501243 -0.0017170741 -0.0039027906 -0.0018666011 -0.0054749465 0.0017117035 0.0010044737 0.0015078459 0.003258578 -0.0021683383 0.0029561273 0.0017751687 0.0014842699 0.003795689 -0.003826583 -0.0005484757 -0.0038545963 -0.0040787267 -0.001058836 0.001320221 0.0042106863 -0.0034969551 -0.0041992636 -0.0017898869 -0.00086459215 0.004460334 -0.0050269943 -0.0050540487 -0.00047596026 0.0006789112 -0.0008717534 0.0013877637 0.00018726154 0.0019431855 0.0031972476 -0.0029966556 -0.0021394456 0.00046522796 -0.0021044598
吗 0.004254485 -6.292678e-06 -0.00041996548 -0.00042689094 -0.0015059545 -4.153237e-06 -0.0016531245 0.0047394605 0.00316687 0.0021582388 0.0037306144 -0.0040324936 -0.001922498 -0.001809266 -0.0035845845 0.0020421355 -0.0010703142 0.005827933 0.002115748 -0.00078100414 0.0023222067 0.0013118004 -0.00015952751 0.0029068121 -0.0017533959 -0.004070792 0.0048111766 -0.0021379918 -0.004900561 0.002899881 -0.0033980939 0.0011654783 0.0034926413 0.0015888986 0.0032862255 0.0013673952 -0.00090339856 -0.0025403637 -0.004631899 -0.0036902423 -0.0017267389 -0.0032380896 -0.0049275933 -0.00024112847 0.0022803475 0.00491779 -6.0808783e-05 0.00042202714 -0.0039037236 0.0015147713 0.00020734433 0.0012369844 -0.00354172 0.001121487 0.0013557045 0.0037674494 -0.0023734043 -0.001982136 0.0019097585 -0.003572744 -0.0023932701 0.00065657345 -0.0011734167 0.0032227738 -0.005487383 -0.0057537258 -0.0006600999 0.0031935894 0.0015669791 0.0025331965 -0.004311266 0.004746455 -0.0013021049 -0.0039978656 0.0020608872 -0.0014627606 0.0047698175 -0.003539244 -2.7362084e-05 0.0007242714 -0.0019734837 0.004560079 0.00077574607 -0.0009955111 -0.00081713684 0.0016448301 -0.002674499 -0.0036319867 -0.004604851 -0.0055577885 0.003836627 0.0018382372 0.0010362446 0.0014697223 0.0027169317 0.0010328636 -0.0014925749 -0.0018078093 0.0045895376 0.004528476
你们 0.0008787928 0.001826125 0.0024269193 -0.004739797 9.640724e-05 0.0048073446 0.0019897844 -0.0006608473 -3.7427395e-05 0.00023899076 -0.0039134054 0.000994662 -0.0032980267 -0.0016056498 0.0052683237 0.0037067083 0.0005997118 0.0007827481 0.0017577973 -0.0002733727 -0.0023364907 -0.00454912 9.021427e-05 -0.0029117416 0.0034949116 0.0037112779 0.0035338153 0.0011321767 0.001022072 -0.001665892 0.0028304097 -0.001954929 0.0005004018 0.004826804 -0.0031694742 -0.0014263968 -0.0024199814 0.0016480245 0.0011999264 -0.0006461621 0.0034523006 -0.004316305 0.0040213712 0.00012383169 -0.0008552807 0.0038837562 -0.001596918 -0.003869564 -0.0016709258 -5.133167e-05 0.00068449875 0.0035782035 -0.0041569597 -0.004181878 -0.0009873875 -0.0017964295 -0.0033161978 -0.0030400034 -0.0024894825 -0.0005029637 0.0016922936 -0.003485974 0.00047479212 0.0034736947 0.0010435304 0.00089258334 0.002747404 0.0022798283 0.005641578 0.00012914417 -0.002571972 0.0012022902 0.005218048 -0.0030096283 0.003298226 0.0033012577 -0.0038682376 0.00194572 -0.0022801356 0.0020176359 0.00010896761 0.00428768 0.0040506395 0.0029024843 0.0018301294 0.00134835 -0.002110606 0.0008394512 -0.0044394024 -0.0014356098 0.0031988372 -0.0015316096 -0.0039609075 -0.0031063461 0.0012775415 0.001592633 -0.003888345 -0.0038004324 0.0018432394 0.0017441731
这 -0.00010370261 -0.0021933818 0.0018156054 -0.002202633 -0.0009318978 0.0042758565 0.004422376 0.0032531836 -0.0013325199 0.004394873 -0.0030146227 -0.0013370366 -0.0040704203 -0.0013791282 0.0047191926 -0.000718279 -0.004068735 -0.0032667418 0.0016052095 -0.003317547 -0.0046102847 -0.0007521943 0.0031177695 -0.0018881712 0.0024464054 -0.0032900928 0.002630314 0.0030780518 -0.004413771 0.0045256116 0.00088713324 -0.00020775764 0.0017468191 0.004218558 -0.0018953449 -0.0046495046 -0.0028127246 0.005100891 -0.0016289165 -0.0011647658 -0.0018206032 0.0048364038 -0.0018655972 0.0028685739 -0.00392887 0.004320587 -0.0009398792 -0.0037276899 -0.0007870966 0.0023631116 -0.0025425928 0.0033025139 -0.00054494594 0.005024592 0.0019053448 -0.0011280726 0.004741608 -0.0026915274 -0.004444058 0.0039532287 -0.0012032293 0.00062423403 0.003594481 -0.0027467264 0.0018863478 -0.0053195506 -0.0040898705 -0.0035267046 0.005132882 -0.0028580243 -0.0033048878 -0.0036301238 0.0019212941 -0.0048154765 0.003587178 -0.0010211422 -0.0042450484 0.00033504906 -0.0012540346 0.0038276433 0.0028004555 0.0014481823 0.0045674383 -0.0012095685 0.002020362 0.0025770657 -0.00085546717 0.00040600728 0.0029671688 0.0029176688 0.0018858614 0.0019683712 0.000881999 -0.0033785421 -0.0052335043 0.0028049417 0.0044281585 0.0015149809 -0.0019626871 -0.0043499386
对 0.0032449889 0.0034426383 0.0042454125 0.0030621546 0.0028046705 0.0051263794 -0.0032714556 -0.0024348402 0.001308627 -0.002666077 0.0018130142 -0.0023723037 -0.0007547225 0.00024884116 0.003805572 0.0021149453 0.0028818133 0.0008302057 -0.0043244143 0.004987387 0.0042905146 0.002218344 0.0033294482 -0.00047472623 -0.00046851748 -0.0011970919 -0.0021398156 -0.0028986135 -0.0040083034 0.0029512653 -0.0046071107 -0.0033920072 -0.0009945947 0.00041638385 -0.0023922045 0.005150226 0.0043160785 0.0031016637 0.00083398464 0.00024527777 -0.004008055 0.004256503 0.00087841327 0.0017920543 -0.004500281 0.004154265 -0.0025071306 0.0006356405 -0.0032889713 0.0052893097 -0.002380329 -0.0008945919 -0.004150191 -0.0029080706 -0.004159755 0.0022491398 -0.0043665855 0.0016499059 0.0022301169 -0.0034329502 -0.0027137925 -0.0022816476 -0.0028561864 0.0041721896 -0.0010240802 -0.00602516 0.0019607828 0.0022120886 0.0029393635 0.0021508695 0.0034914168 -0.0043135975 -0.0018262267 0.004095683 0.0049219807 0.0022313169 -0.0026735214 0.0010026554 -0.0007420399 0.0030306727 0.003885145 0.0031141178 -0.0041969307 0.0021569855 0.0038083552 -0.0052632103 0.00086363376 0.0039969976 0.00456396 -0.005848268 6.2640305e-05 -0.0053661074 0.0014847517 0.00360033 -0.0052754823 0.0052211466 -0.003441662 0.0032303405 -0.0043363017 -3.3482644e-05
想 -0.0031441576 -0.0047831796 -0.0029831817 -0.0011527003 -0.0026007842 -0.0027440267 -0.004055508 -0.004543514 -0.0024375406 -0.0028561219 -0.00058716995 0.0011802262 -0.0044402466 -0.0022130406 0.0027013444 0.00052613736 -0.002256199 0.0019254073 -0.0009605345 -0.0007947299 -0.0039993445 -0.003625556 -0.0048786453 0.0007644537 0.0025061015 0.003060274 -0.0022222672 0.00046922336 -0.0014781258 0.0058677504 -0.0038557362 -0.0011053365 -0.0014385064 0.0061428514 -0.0051447237 -0.00145532 -0.0013481999 -0.0011197214 0.00026283856 0.002462256 -0.004675674 0.0038834196 0.00068685063 0.0043451595 0.004395089 -0.00074828946 0.0024764847 -0.004607158 0.0040804194 -0.001113399 7.6584714e-05 0.0037750255 0.0022421796 0.0027286506 -0.0005372983 0.0026562 0.0010294194 -0.0010398732 0.002194852 0.0048248116 0.0029662428 0.003682833 0.001995185 0.0013276628 -5.852519e-05 -0.0033228886 0.0029057083 0.0022458702 -0.0029119367 -0.0025277801 0.0013902154 0.0010863437 -0.0039025797 -0.003471486 0.004634395 0.00013727338 -0.0040047006 0.0011204706 0.0027640786 -0.0026657493 -0.0046324325 -0.00056171196 -0.004040808 0.003381224 0.0001605187 -0.0018788445 0.0036908828 -0.004241573 -0.0030356962 0.0011064208 0.0041211015 -0.003850862 -0.0014095453 -0.0036121127 -0.004429263 -0.003795146 2.3915787e-05 -0.003951199 -0.0010858681 -0.0010964999
和 -0.0017771026 0.0036381877 -0.0005134814 -0.0030882482 0.0055374214 0.0014366062 0.0046127536 0.0010866977 0.0024473465 0.00504895 -0.0039654803 0.0035583014 0.0024873875 0.003990754 0.0020452049 -0.0008408555 -0.0038456782 -0.002436522 -0.0008140357 0.0037271697 -0.0045021144 -0.00060930155 0.0017443281 0.0042187697 -0.0016216479 0.003017213 0.002203645 0.001126396 0.0035850003 0.0006972281 -0.004601844 0.0027052027 0.004904304 0.00265543 0.0039864243 0.0026374627 -0.0038434826 -0.0033082361 0.0010266543 0.0010064843 -0.0011198844 -0.0011792582 -0.0033523748 0.0018712678 0.0030272824 0.0042743245 -0.0013278483 0.0036850236 0.0013029594 0.00022660429 0.002453251 -0.0046253675 0.0029149123 0.005013549 0.0010377587 -0.0008487756 -0.0021064563 -0.0027044571 0.0046780976 0.0054628085 -0.0016032099 -0.005554571 -0.0024013421 0.0006363611 0.0012233926 -0.0027603996 -0.0013687637 -0.0006929531 0.00080219645 -0.0022143305 0.0015186338 0.0033664797 9.624302e-06 -0.0022078613 -0.0007947063 0.004464642 -0.0046228995 0.0002049056 0.0042666374 -0.004317647 0.0014963192 0.0012089467 0.0029096385 0.0027456593 0.00062940246 -0.00096824556 0.0022146883 -0.0042066504 0.003769484 -0.0036994943 0.002387039 -2.1126258e-05 -0.0014646918 -0.003439217 0.0021449355 0.0049775233 -0.001212558 -0.003740637 -0.0027537006 -0.0024653364
哈哈 0.0049285884 -0.003715276 -0.00011933263 -0.0037261292 0.0025610593 0.004819289 0.0036350498 -0.0030695659 0.0038496433 9.07818e-05 -1.672117e-05 0.003197277 0.00094833225 -0.00407336 0.0035200603 -0.0029240756 0.002253933 0.003025323 -0.004849945 0.0043675443 0.0029004246 -0.0026507445 -0.0033105833 -0.0044391095 0.0030570216 -0.003072656 0.0010015548 -0.0049991063 -0.004425938 -0.00027063393 0.0018430172 0.005175813 -0.0026970129 0.004615004 -0.003986735 -0.0030848098 0.0025629057 0.0017147555 0.0031726856 0.0005505803 0.001832137 0.0037667656 -0.004267774 0.003115381 -0.0029532881 -0.005046505 0.0054104417 0.004457273 0.00084145437 -0.002192587 9.16262e-05 -0.0025602616 0.0010310069 0.0010744956 -0.0009868848 -0.0016029477 -0.0021560923 0.0047650915 0.004561541 0.0033851243 0.002160078 -0.0052038208 -0.00038884085 -0.004671469 0.0015444473 -0.00046051605 0.0054037236 -0.0038951572 0.0020878096 0.0053277314 0.0031886562 0.0029023448 0.0038341798 -0.0047186874 0.0041825464 -0.0043400945 0.001715331 -0.004790301 0.0013528641 -0.0010623591 -0.0022600223 -0.000101832564 0.004951493 0.00019673113 0.00059798895 0.0011593588 -0.0035087506 0.0042627784 0.003880853 -0.0040617688 0.0047360174 -0.0049826032 0.0049774093 -0.0035737935 0.0008190956 -0.0015415538 0.0023494 -0.003232591 -0.0050704814 0.005062441
真的 0.004172978 0.0014977241 -0.0024599356 -0.00021377504 -0.0014395439 0.00044075516 9.806875e-05 0.004433342 0.0019450744 -0.0019134585 0.0012429344 -7.207213e-05 -0.003377982 0.0001587776 -0.0029667348 -0.004743944 0.0030526281 -0.0023222638 0.001027098 0.0018194577 0.0005650457 0.002939151 -0.0051935953 -0.004605062 0.0035499134 -0.0033066275 -0.004054571 -0.0034154642 6.950928e-05 -0.00053651445 0.003501585 -0.0034800654 0.0002984724 0.001416095 -0.0041829846 0.0007061685 0.00044667243 0.0057275523 -0.0014095751 0.0046592834 0.0034609206 -0.0019781245 0.0039932034 -0.0009018446 -0.0033184758 0.001410415 -0.0016731595 0.001948128 -0.0014848658 -0.0035599738 0.00022691155 0.00093865197 0.0051782844 -2.2483711e-05 0.0018801282 0.0003816912 0.00017630786 0.0051883045 -0.00067087426 -0.00041046247 -0.00308692 -0.0026731505 0.0033594498 -0.0034986185 -0.0023872233 -0.0015692974 0.005552147 -0.0012202082 -0.0027197558 0.0029029385 -0.0010887962 0.0028475188 0.0005872159 -0.0041931896 -0.0031080088 0.0034966553 -0.00043315 7.731411e-05 -0.0013582404 0.0045352713 0.0019535492 -0.0008622759 0.0031485579 -0.0041285083 -0.00062339165 -0.0052731005 0.0030718497 -0.00067822624 -0.0038162875 -0.0049749366 -0.0011737092 -0.002146789 0.0036686743 0.0020061482 -0.00032721687 -0.002475466 -0.00020394134 0.00061169924 0.0008162841 0.0039324635
色 -0.003732501 -0.00078727806 0.00091406715 -0.0047270698 0.0047602835 0.0035507593 0.0020525535 0.005413695 -0.003949942 -0.003860863 0.00022799728 0.0050054016 -0.004721695 -0.0004143995 0.0021643394 0.0016285515 -0.0051871794 0.0009327976 0.0015771646 0.0047812043 -0.0020880217 0.003814175 -0.0054626153 0.0031096388 -0.0029729856 0.0011387172 -0.003987028 -0.0048928387 0.00034674915 0.0036560358 0.0020137245 0.0015036153 -0.0033626633 -0.0020435792 0.0019291564 0.0030056573 0.0009702611 0.0037659763 -0.0043332377 -0.0017245515 0.00024587876 -0.0030494402 -0.0051358803 0.0008197825 -0.00025980655 0.0042466274 0.0014866535 0.0030298831 0.0047977194 0.0049905404 0.004938459 -0.0046733515 0.0047052065 -0.0023236875 -0.0029655984 0.0042025843 -0.00037174585 -0.0012863105 -0.0021496483 0.00028079873 -0.0036657797 -0.004913962 0.0033252775 0.00477028 0.00087316363 -0.005956638 0.0010064527 0.0014840104 0.005394516 -0.0007346598 0.0027053037 0.00146093 -0.0035245041 -0.0030456977 -0.0014815642 -0.00044788144 0.00018803428 -0.0006311439 -0.003023049 0.0033468273 -0.0004949421 0.00483555 0.0029477677 -0.0010878333 0.000786323 0.0037114436 0.0011968306 0.0007100615 0.0032647173 -0.0025591343 0.00076754624 -0.004508361 0.0027291412 -0.00372431 0.0007584424 -0.0011532345 -0.0056810887 0.0035106575 -0.0051341974 -0.0017831519
很 -0.0037355346 -0.004670426 -0.00286174 -0.0013631022 0.005358266 -0.004701321 -0.0047836797 -0.0001958609 -0.00054833974 -0.0019051596 0.0020443483 0.0023216608 0.0014681707 -0.0020280534 0.0043759984 -0.0049841674 0.0047341576 0.0008193814 0.0041902745 -0.0017567647 0.003790029 0.0027824496 0.0042093988 -0.0026085316 0.0011922938 -0.0014562166 -0.0037542603 0.0028405525 -0.0021744766 -0.00046628938 -0.003991398 0.0037950892 0.0048069316 0.00033440185 0.0030327924 -0.0037164735 0.0039703483 -0.0026998343 -0.003575369 -0.0031248215 -0.0016251975 -0.0027195185 -0.003737943 -0.0025845664 -0.002137089 -0.0022748837 0.002617355 -0.0026452302 0.0033995868 0.0026249848 -0.00054374425 0.0032353073 0.0011778679 -0.0011712312 -0.0043151355 -0.0045635127 -0.004447327 0.004019724 -0.0005649211 0.00042392922 -0.002693673 0.0012730769 -0.0048100636 0.002030922 0.003646736 -0.0027178912 0.0027671384 -0.0029276153 0.0007952357 0.0048280344 -0.0025724783 0.0037555571 0.0019930464 0.0047373376 -0.0037906975 -0.00020870895 -0.0025934384 -0.00017421224 -0.0019991803 0.0021036286 0.0051920004 -0.0048588137 -0.003942829 -0.0037432527 0.0028100084 -0.0013179386 -0.002864164 0.003636135 -0.0050574346 -0.005401457 -0.000913841 -0.0026739778 -0.0036557743 -0.003383225 -0.0007002099 -0.0026707863 0.0014612899 -0.0011222035 0.0008009579 0.0023987219
在 0.004757246 0.00044679784 -0.001076224 0.0027254173 0.0024852697 0.00058946654 -0.0042734933 0.0031007263 0.00046446227 -0.003795827 -0.004576035 -0.0043257135 -0.0004905474 -0.004714548 0.0003652171 -0.0043243715 -0.0018504215 0.00087433495 0.0011070527 -0.0019319119 -4.9120277e-05 0.00070913817 0.00042339956 0.0019159159 0.0012918647 0.0022868344 0.0014561589 -0.0047631855 0.0036405427 0.0058312295 -0.003224547 0.003996694 0.0020940807 -0.0012957286 0.0009228601 -0.0048848405 -0.0043332605 0.0012233456 0.0020680844 0.0027068502 -0.005019871 -0.0037709041 0.0035800347 0.002504943 0.00309018 -0.0011319324 0.0032441965 0.001602738 0.0031795483 -0.0007265158 0.0013012085 0.0022999516 -0.0011982551 0.004840982 0.0021533268 -0.004742321 -0.0047902293 0.00018849883 0.003349951 0.0038976353 0.0023895758 -0.0046730423 -0.0040504355 -0.0022394843 -0.0010062463 0.0028018942 -0.0025027674 0.005028515 -1.1045389e-05 0.0011566383 -0.002285018 -0.004613722 0.0025210597 -0.0015496457 0.001247938 -0.0014801396 0.0006065826 -0.002515578 0.004606166 0.0036873221 0.0021758438 -0.0025543945 0.004602997 -0.0011505765 -0.0024836895 0.004214819 0.0016032606 0.0012809336 -0.0038013528 -0.0008712773 -0.0020439494 -0.002681753 0.0023921055 0.004678411 -0.0038918771 0.0011568207 0.0023906557 0.001836162 -0.0017503267 -0.0013060232
喜欢 0.00060278486 0.0045837825 -0.00038304506 -0.0031638758 0.0024296886 0.0027616494 0.0045126397 0.004539493 -0.0012159167 0.0034719242 -0.00425053 0.0015705705 0.0016188603 0.0019571523 0.003134632 0.0037007 0.00072136644 0.005751964 -0.0027416889 0.002576114 0.0009995777 -0.0034554393 -0.0049448595 -0.0046782847 0.0009544724 -0.004766022 -0.0011786497 -0.0031549912 0.004355908 -0.0029734736 0.001387575 0.0020118402 -0.003941065 0.004870172 0.0043850695 -0.004813854 -5.5888795e-05 0.0013486734 -0.001531263 -0.0026682888 0.0021306344 -0.0018549438 0.00237848 0.004746429 0.0016742238 0.003512874 0.0026739568 -0.0021760014 -0.004439439 0.001902155 0.004729356 0.002052504 0.0040009012 0.0043443795 0.004382396 -0.0031223234 0.002473152 0.004395968 -0.0007177827 -0.0006275675 0.0024499984 -0.005156976 0.0028719169 0.0018351033 -0.0038819248 0.0002066368 -0.004138131 -0.0011577958 0.0027264918 -0.0009502302 0.0029113784 0.00052766385 0.005258248 0.0008364136 0.0027962811 -0.0045405356 -0.0015626946 -0.0045614615 -0.0043641794 0.0021663515 0.00043002793 0.0010964256 -0.00019697411 0.0018004951 -0.0020183644 0.0036467211 -0.0051960377 -0.0012954817 0.0013374526 0.0016300888 -0.0006301606 0.0019866023 0.0012669658 0.0048051523 0.00055391487 0.0027322671 -0.0008113465 -0.005200403 0.00013445117 -0.0039785733
有 0.0024236306 0.0026389556 0.0035408079 0.00033958835 0.0054726773 -0.0035109099 -0.0045006084 -0.000547262 0.004292455 0.0012679502 0.0008538485 -0.0022401765 0.00033164848 0.0054179626 0.002429354 -0.00043934694 -0.00082299515 0.0055245985 0.0032768853 0.0050481963 0.0017116984 -0.0042299097 0.0038979664 -0.0054279524 -0.0034340697 0.0012784858 0.0019382599 -4.9240707e-06 -0.0045858603 -0.0034263688 -0.0022696008 -0.0009982166 -0.0012223453 -0.002588746 -0.0008140545 -0.00050874095 0.0039305906 0.0036091735 -0.003542234 0.0050447844 -0.0045384285 -0.00084832846 -0.0027025077 -0.0027597197 -0.0013711307 -0.002303034 -0.0031728826 -0.0020163928 0.0008120857 0.0013169551 0.004283114 0.0012908961 -0.0035805062 0.00080649025 -0.0020618087 0.0023642238 0.00067508087 -0.0016495883 -0.0042712158 0.0025817032 -0.0012345128 -0.0005237978 -0.0057721287 0.0022313627 -0.0036283622 -0.0056955596 0.0059414515 0.002798729 0.004890372 -0.0008793732 0.004099172 -0.0019660378 -0.0029157426 -0.00218869 -0.0014306747 0.00043972954 0.0026739344 -0.006216441 0.0012375745 -0.0023066937 -0.0008707186 0.0007574646 0.0029795328 -0.000767115 0.0038769806 -0.0014273269 -0.003219735 -0.0053082267 -0.00058088143 -0.0061435234 -0.0033064608 -0.0049333223 0.0018615776 0.0029306677 0.0014212158 0.0011880198 0.001918496 -0.002561681 -0.0019350696 0.00348976
看 0.00396786 0.0030888193 -0.0010887968 0.00020149226 0.00090350653 -0.0009674195 -0.004668035 -0.0012427153 0.0031531793 -0.0034125668 -0.0063440315 -0.002586595 -0.0010205968 -0.0006293947 0.0024994456 -0.0042166254 -0.0043791896 0.0005732242 -0.0043976083 -0.003203062 0.00048157005 0.0029780508 0.0034113855 0.0010295396 0.000278449 0.00095205504 -0.0003518621 -0.00048469045 6.205126e-05 0.0030013854 -0.0013063855 0.0019321631 -3.7331127e-05 -0.00074869685 0.0018078113 0.0013609228 -0.001917019 0.0010348612 -0.0018264806 0.0019532687 0.002022629 0.0019097925 0.00032211727 -0.0013323968 0.0023144 -0.00034685465 0.004961839 0.0031448635 -0.0025800283 0.00058187783 -0.002745079 -0.0040316894 -0.00048148158 -0.0046236278 -0.0049437056 0.0016202346 0.0026459247 0.0028276152 -0.0036932419 0.0041943905 0.0005171951 -0.0016485427 -0.00017912635 0.0006681452 0.0012706768 -0.0042707776 -0.0021418969 0.005254892 0.0010418177 -0.00058809755 -0.0044974643 -0.0036114417 -0.0030871502 -0.0014404919 0.0035277163 0.0035028302 0.004128613 -0.0041685496 -0.0016474343 0.004340865 -0.0036332114 -0.0030922468 -0.00071129634 0.003520358 -0.0045761326 -0.0052131787 -0.0007099971 0.0005768581 -0.004941899 -0.0040996037 -0.004633846 0.00251099 0.0007767747 0.0010690991 -0.0034366609 -0.0013937018 -0.0028408938 0.002941044 0.0044200295 -0.00055866037
好看 -0.0047502364 -0.0019830454 0.0006237042 -0.0036700517 -0.00035665993 0.0046507106 -0.002134058 -0.0011295569 0.0024372109 -0.0019371215 0.0011545538 -0.0018622616 -0.0044955495 -0.0024107923 0.0051902765 -0.0045788526 0.0034289632 -0.004030392 -0.0023136756 0.002600598 -0.0043948703 0.0034035882 0.0011021566 -0.0023067498 -8.048143e-05 0.002880179 0.0023100777 -0.0042705047 0.0002335202 0.0018949803 0.0023307963 0.002597294 0.0004363373 0.003311337 -0.003814037 0.002390545 -0.0033269997 -0.0007274806 0.003591568 0.0005372452 0.0008174403 -0.0024170186 -0.0042112526 0.0016372367 -0.00344804 -0.004357251 -0.0029412515 0.0036987856 0.0013726024 0.0039321505 0.0040724208 0.00087906275 0.0022600219 0.0026654652 -0.0010357981 0.003777765 0.0017184045 -0.0041827825 0.0009014454 0.000105967054 -0.00010108011 0.0034278247 -0.0024654286 -0.0030112518 0.0017685454 0.00013536273 -0.00023384861 0.0043518115 0.0060855965 0.0017910954 -0.00066617253 -0.004315028 -0.0026249918 -0.0030224335 0.0045932154 -0.0008550037 0.001982863 0.00015665616 -0.002287698 -0.0039147646 -0.0012729188 0.0015458722 0.0010109736 0.0032719716 0.0004076146 -0.0013732957 -0.0010539918 -0.0005043649 0.0040498464 -0.0047986084 -0.0021206848 0.00412052 -0.003287954 0.0027711694 0.0039032649 -0.003437737 0.0028756692 0.0015635954 0.004027042 0.002143712
好 0.0026986348 0.0018599724 -0.00036194283 -0.004382094 0.004424299 -0.002019637 0.0024578962 -0.00086056744 0.0035061834 0.00015049285 0.002157686 -0.0041671484 -0.00017534132 -0.003306248 0.0021784913 -0.0044423784 0.00020488315 0.0036205058 -0.003915475 -0.004182629 -0.0013412547 0.004409477 -0.00475681 -0.0050748372 -0.0045608846 0.0007487477 -0.0044700117 2.6150445e-05 -0.0032666828 -0.001324871 -0.0021315173 -0.001655447 0.0029200995 -0.0005732535 0.0027602806 0.0041262875 0.0050869854 -0.0014069413 0.0016838465 0.004951051 0.0002066157 -0.0019923262 0.001705474 -0.003983075 0.0008369043 -0.0011846964 0.0027343621 0.00050016853 -0.0035817465 -0.00094872824 0.00020725634 -0.0027291083 0.005160478 0.00036554819 0.001009777 0.004599196 0.003665369 -0.0025270896 0.0022829664 -0.00183041 0.002181167 -0.0028635846 -0.0014651847 -0.0050354563 -0.0031568138 -0.0038272992 0.0030854493 -0.0034738227 -0.0015286512 0.00043967066 -0.001530204 -0.003986812 -0.0037428604 7.121144e-05 0.0029660077 -0.0046687974 -0.002304849 -0.003779224 0.00018316979 -0.004746391 0.0029815412 0.0011218361 -0.0011995393 -0.0013030273 0.004621826 0.0021122321 0.0029292952 -0.0049124607 -0.0025226118 -0.0037728741 0.0026529392 -0.0025750543 -0.0024532094 -0.0024148184 0.0031165131 -0.0025016214 0.004091961 -0.0038765313 -0.0039251777 -0.0025030195
今天 0.0015011143 0.004384276 0.0020493206 0.0030091133 -0.004052147 0.00084043085 -0.0029301234 0.004517857 -0.002570156 0.0019657603 -0.002622411 -0.0033813734 -0.004951984 0.0015675108 0.0015458156 -4.0052077e-05 0.00034823542 0.004756211 0.0029177724 0.0035251628 -0.0040029357 -0.0030392648 -0.0038525157 -0.0048829326 -0.002145584 -0.0040819524 0.004810276 0.002367759 -0.0022696676 0.004087148 0.003045587 -0.0047229794 -0.0013350679 0.0023561302 -0.0008417801 0.0047324165 -0.0010256135 0.0053106924 0.0035841244 0.0031963137 0.002243693 -0.00070754485 -0.0035823623 -0.0033863913 -0.003626882 -8.8500004e-05 0.0044464315 -0.004415064 -0.00039347316 -0.0013594731 -0.0028081443 -0.002358559 -0.0031698386 0.0045225923 0.0035239833 -0.0048915404 0.0012782373 0.0035833186 0.003456032 -0.00016985241 -0.0012341827 0.0008176086 -0.00056318956 -0.0035277456 0.0026050583 0.0026001695 5.9245875e-05 0.0047178045 -0.0034753159 -0.000103592625 -0.0029749277 0.0015734902 0.0006579148 -0.0027134693 0.0046148673 -0.00013557838 -0.0037502602 -0.0006752586 -0.0031447727 -0.0013741796 0.0046064164 0.0029685134 0.0014246515 0.002440332 -0.0025121772 0.002398741 -0.0010488203 0.0016760445 -0.0026334096 0.0032960696 0.00062109664 -0.0018309067 -0.0039382097 -0.0047621145 -0.0033459773 0.001800868 0.0040498 -0.004707235 -0.0044716517 0.0012337018
小女孩 -0.0015976885 0.0006178361 0.0041314918 -9.304455e-05 -0.0037290037 1.1076024e-06 0.00474761 -0.0018381772 7.273888e-05 -0.00082279596 -0.0037829904 -0.0022238782 -0.0037461452 -0.002802792 0.0010567332 -0.0015990078 -0.00086606754 0.0035184354 0.003782716 -0.002280046 -0.002172205 0.0031560701 0.0032034635 -0.0052028396 1.35048795e-05 0.00043399513 0.0037285828 0.0013766157 -0.0024634697 0.0025782904 -0.0017103526 0.00454313 -0.0024976493 0.0055381237 0.0016340305 0.0025425893 -0.0020916488 -0.00290181 -0.0036015275 -0.004609651 -8.1913364e-05 -0.0036527934 7.443414e-05 0.00059338467 -0.0018354985 -0.004170216 0.003769878 -0.0037555331 0.0011659379 0.0032343962 -0.003802624 0.0031418905 0.0025634365 0.004623275 -7.0021655e-05 0.003107815 0.0026861317 -0.0043934905 -0.00012275943 -0.0005734456 0.0037735787 0.0040183268 -0.0036130217 -0.000727895 0.001981431 0.0013924644 0.0016243052 -0.0010770757 0.005801587 -0.0015701961 0.0048479345 -0.00030907438 -0.0037696399 -0.00067562115 -0.0021337853 -0.0032930032 0.0041450225 -0.0049200724 -0.0006103684 -0.002200562 0.0047450946 0.0025243459 -0.0040037595 0.0043792236 -0.0038159066 0.004350573 -0.0041806754 0.0020363452 0.0043469346 0.00014324735 0.004331579 -0.0037626035 -0.0013007092 0.0012177306 -0.0032411811 0.00275749 -0.0018508963 -0.0049358467 0.0013592005 -0.0017695283
还 -0.002208651 0.0011215166 -0.002799458 -0.0053931256 0.002990851 0.0047803908 0.0015207478 0.0003551221 -0.002119044 0.004442212 -0.005243844 -0.0041525667 -0.00027822284 -0.0007666879 -0.0018039594 0.004160314 0.0047022556 -6.298024e-05 0.004763055 -0.0042740875 -0.00012576031 0.0014438077 0.0013205511 -0.0007997036 -0.0007656452 0.0002962818 -2.9276796e-05 0.0007890515 0.003247789 0.005467846 0.00033106605 0.0020647803 0.004815814 -0.0007203706 -0.0017216986 0.0006752266 -0.0010621538 0.0002011977 0.0012864191 -0.0025379027 0.00028429364 0.002889462 0.0036635261 0.0041900086 -0.0035289542 -0.00090160174 0.003839831 0.00472473 -0.0009638529 0.0009840401 0.002067781 0.0030560468 0.005258708 -0.0002528454 -0.003391061 -0.0042223674 0.0028722405 -0.004741276 -0.0028410116 0.005697713 0.0024932018 0.0007258965 -0.0055327183 0.0030689978 -0.0036461346 0.0034941644 0.0027720856 0.0008051211 0.006203651 -0.002616553 0.0005171851 -0.003444827 0.0043601603 -0.005006838 -0.0020475127 -0.0013155203 0.0003548605 0.0011292597 -0.0047193985 0.0047569415 0.0036917683 0.004163334 0.0023498915 -0.001277595 0.002585 -0.00439411 0.0017040845 0.0031868878 0.0040947287 -0.005139297 0.004170559 0.0012711298 -0.00026700163 0.0031973817 -0.0035632935 0.004286926 0.0019248257 -0.0024052863 0.0038785373 0.0040173954
却 -0.00019305493 0.004789501 0.0035613503 0.00092707324 -0.003609134 -0.0036074987 -0.0017300857 0.0023974315 0.002721397 0.0003122157 -0.0009837167 -0.001971702 0.00047885996 0.0016105503 -2.3112916e-05 0.0022348864 0.0007100662 0.0014404345 -0.0038162314 -0.0045426916 -0.0015811936 0.004285104 -0.0022661495 -0.0020576487 -0.0006828385 0.0029166108 -0.0015463356 0.0026839175 -0.00481449 0.0041387463 0.0032416296 -0.0036376042 0.0013145355 0.0042743026 -0.0007549764 0.0032034784 -0.0020752435 0.001496637 0.0003466302 -0.0036270998 -0.0051114 0.0008214388 -0.0051204143 0.00088185194 0.0049312594 0.0006346892 0.004683828 0.0022406904 -0.0024662837 -0.0022403544 0.0057583065 -0.0012573734 -0.0018275471 -0.001185521 -0.00079162687 -0.00056052546 -0.0034635072 -0.0016635086 0.0019533227 0.0021787502 -0.0010250246 0.003937842 -0.0010165451 -0.0032455625 3.9253053e-05 -0.004442586 0.005719104 0.0009915307 0.0044684424 -0.0005276793 -3.5783352e-05 0.00084630796 0.0057533053 -0.0012299361 -0.003277348 -0.0023349582 -0.0023727515 -0.0048485016 0.0019729673 -0.0035716994 -0.0035883323 0.0028118258 0.0036141372 -0.000551639 0.0009598382 0.001107575 -0.004561066 0.0043478864 -0.0014050802 -0.002699394 -0.003606839 0.00033898265 -0.0027456053 0.0003495823 0.002144132 0.0040764613 0.0032699257 -0.00549973 0.0044772695 0.0043366794
要 0.0045434684 0.0026735847 0.0029394499 -0.004481758 0.0005778671 0.003194019 0.0016191951 0.003505904 0.00034484244 0.003937258 -0.005346349 -0.0045766444 0.0035552124 0.00015367693 -0.0043632137 -0.0032560232 -0.0009990713 -0.00010727015 -0.00077686604 -0.004332947 -0.0015892512 0.004158675 0.004270339 -0.0024698447 -0.0033855378 -0.0013878373 -0.0012324569 0.0038512985 -0.00010765086 -0.0026155731 0.0006782257 0.0007416546 0.003298186 0.0010102752 0.00061594293 0.00065605174 0.0034302445 0.0032294719 -0.002559334 0.005049739 0.00042558552 0.0010181841 0.0037536162 -0.0010786 -0.00303599 0.002250812 0.00488793 0.0026065046 -4.0454695e-05 0.0031576413 0.0034259595 -0.00012825565 -0.0011217162 -0.004513606 -0.00012759664 -0.002039772 0.002643659 0.0032046365 0.0026942634 0.004195344 -0.0043613343 0.0025875438 0.0014837047 -0.0017473852 0.003504134 -0.0047812182 0.0006942729 -0.00012936446 0.003644845 0.000105627965 -0.0039497344 -0.0038060907 -0.0040526125 -0.0019688315 0.0031465336 0.0011442449 0.0046782903 -0.003818924 0.0037792174 0.0036422494 -0.0024641245 -0.001356691 -0.0042043305 0.0025441968 0.0021243498 -0.004580923 -0.0022654387 0.0017929177 -7.534798e-05 0.00248334 -0.00382745 -0.0018226092 -0.004240341 0.0013813174 0.00079855224 0.004155597 -0.0027697901 0.0016465859 0.0030467934 -0.0038808535
就是 0.0021122908 -0.0019714187 0.00080064015 -0.004245924 0.0032545067 0.0047341264 0.0019957838 0.0029717283 0.003840311 0.0030081316 0.0027023915 -0.003516195 0.004537738 0.0011818821 -0.00015537148 -0.00050167105 -0.0028740093 0.0011029176 0.0019132525 -0.00014378555 -0.003929244 -0.004195044 -0.003517402 0.0027281188 0.0026202882 0.0025892039 -0.0024503316 -0.0041369577 0.00226783 -0.0002717341 -0.0003613857 0.0045530326 -0.0011196876 0.0040771067 -0.0016269735 0.0003396977 0.0008592775 0.0039442563 0.00043583638 -0.0031013954 0.000485877 0.0016179495 0.0041378313 -0.0014277728 -0.0033109793 -0.0017096191 -0.0040004593 8.89038e-05 -8.3992636e-05 -0.0016832378 0.0044678096 -0.002556836 -0.0017542952 -0.003817282 -0.0038072572 -0.002564443 0.00026552888 -0.0021171093 -0.0022368704 -0.0014421511 0.0045541413 -0.004473502 0.0020678206 -0.0045008836 0.00014097683 -0.002284033 0.005159671 0.004217088 0.0054185144 -0.0020184407 -0.0027084295 -0.0032852506 0.0015561407 -0.0045870873 0.0004718554 -0.004445022 -0.0018478917 -0.0043076244 0.00073531875 0.004372776 -0.00069276534 0.004652562 -0.0040934756 -0.0017622969 -0.0024533784 0.00085385016 0.004547227 0.0044028885 -0.0039278287 -0.0029931178 0.00061630143 -0.003120466 0.0044353325 0.0024442014 -0.0013068351 -0.0037620596 -0.0020241488 -0.0023503618 -0.0017417714 -0.00485531
吧 0.005011295 -0.00263442 -0.0010967685 -0.0030422623 0.0029023117 0.003430636 -0.0022036927 0.0037973633 0.0012619102 -0.0005391812 0.0025510087 -0.0035726978 -0.0015363458 0.0034422905 0.0039746794 0.001344988 -0.002890018 0.002517074 0.00068022264 -0.0043567573 0.00063982315 -0.0012736836 -0.003359844 -0.0025464436 -0.0034206416 0.0033491552 0.0021307243 -0.0026518595 0.0004354429 0.0016475903 0.0035242985 0.0002699437 -0.00081670267 -0.0008913283 0.0003308309 0.003149191 -0.0004665733 0.0036774261 -0.00025463698 0.00065121753 0.00096641656 0.0051548295 0.0036010873 -0.0049483525 0.0034522382 -0.0032505973 -0.0023446425 -0.0033446986 0.004783719 -0.0015583443 -8.914057e-05 -0.00017546696 0.0029730545 0.005122578 0.00032894965 0.0013053056 -0.0014721927 0.0017603921 -0.0034199264 0.00018793692 0.0011289289 -0.0022543396 -0.003355142 -0.0010848229 -0.0005009105 -0.0057826512 -0.0041335225 -0.00033905136 -0.00231976 -0.0024034916 -0.0030859706 -0.000495637 -0.0010523639 -0.0021518732 -0.0043566898 -0.0022157168 -0.004183555 -0.0018806228 -0.00034957673 0.0037112886 -0.00015787383 -0.00012978251 -0.00239021 0.001657532 0.0046335263 0.00260467 0.00046284642 0.0015164781 -0.0023123238 -0.0038404649 0.0040756487 0.0024268727 -0.0044074315 0.0030680983 0.0018106181 0.0017585077 -0.0045463964 -0.0038684309 -0.0010406595 -0.0025755279
到 -0.00090617203 -0.0025434077 -0.00040137727 0.0007908028 -0.003508183 0.0016934121 0.0042675845 -2.649083e-05 -0.003050157 -0.0019557234 -0.0022594533 -0.0029135833 -0.0040728445 -0.00018049106 0.0017019706 0.0002738539 0.0010662022 -0.002198164 -0.00397532 -0.004678001 0.004015486 0.0017185234 -0.00014899137 0.0008621987 -0.0004971459 -0.004929903 0.004447373 0.0037449102 0.0032315475 -0.0023454013 -0.0019464631 0.0040916065 -0.003924187 0.0021741653 -0.004721722 -0.002202908 0.0015482777 0.00084371486 0.0009053891 0.0010994887 0.0036933802 -0.0030846682 0.000570643 -0.003980905 0.004762063 -9.4578725e-05 0.004027332 0.0013327774 0.002740386 0.004455605 0.0050582015 0.003752879 0.0014010295 -0.0021548648 0.00065620587 -0.0008239882 0.0025211326 0.0018807988 -0.004323253 0.0014080934 -0.0014545702 0.0034809944 -2.2496251e-05 0.0010982701 0.00051249965 0.0029738215 -0.0033883979 0.00041971478 -0.0017556957 0.0019369991 0.004735576 -0.002959137 0.004171932 0.004068817 0.0035669536 -0.0047730724 -0.002366744 -0.0019843457 -0.004555274 -0.0009581428 0.0052693733 0.0006370725 -0.0018187397 -0.0042959047 -0.004306732 -0.005671915 0.0037227408 -0.0047994033 0.0031426118 0.0010918465 -0.0028138827 -0.0025366168 -0.0022874288 -0.00438856 0.0003083714 -0.00081194495 -0.004636371 -0.0029053744 0.0036993811 0.0008787289
鲜花 -0.0023023621 0.004918266 -0.0010620964 0.00020726398 -0.0039007862 -0.002770993 0.0024953312 -0.0032699057 -0.00067617313 0.003911648 0.0046950886 0.002972238 0.0032553659 -0.0016898274 0.003041094 -0.001727076 0.004212051 0.0033625166 -0.00010467331 -0.002336783 -0.0014085971 -0.0022335714 0.0036905846 -0.00094165 0.0030383451 -0.0043003364 0.0036981148 -0.0025784078 0.0030660904 0.0026570545 0.0020375848 -0.0018629013 -0.0027652134 0.0051309313 0.0038987193 0.0020241847 0.0035672213 0.0021989034 -0.0025439323 -0.0016462415 0.0010574101 0.00053890387 -0.00039160516 0.004961412 0.004673887 0.004325219 0.0050963927 -0.0013496093 -0.0016431137 -0.0038030795 -0.004473088 -0.003072034 0.0034362944 -0.00086501765 0.0009536207 0.0014816659 -0.0049918266 9.613708e-06 0.00022967286 0.004886495 0.0028542122 -0.0005514602 0.0038726013 0.0030260996 0.0035075457 0.0033208674 -0.0025163651 0.004237795 0.0026484192 0.002200068 0.004620218 0.0026018333 0.00096936565 -0.0015193378 0.003356582 -0.0047310255 -0.0019027186 0.0013915492 -0.0033497573 0.0052658226 0.0021480478 0.003926689 0.0045845397 -0.0015124661 0.003282568 -0.0048681702 0.0007504191 0.004838798 -0.002411796 -0.0036033462 -0.0036257594 -9.00444e-05 0.0030222705 -0.0021655043 0.0033667549 0.004385304 -0.0015657424 -0.00072971825 0.003195846 -0.0033073176
自己 -0.004512332 0.003105256 -0.0013264769 -0.0041864403 0.0031778566 -0.0036490618 -0.00011827353 -0.0029394769 -0.0016839845 0.002263589 -0.006237066 -0.00027795215 -0.0033833054 -0.002760595 -0.0012850752 -0.0014360349 0.0027497937 -0.000116193514 0.0038287297 0.004384702 0.004144329 0.004370958 0.0042040977 0.00012112072 0.0013697337 0.004450831 -0.0026141014 0.0014183247 -0.0042323484 -0.003337494 0.001054746 -0.0023973046 -0.002201554 -0.0035468373 0.00095734635 -0.004518559 0.003089396 0.0024957154 -0.0030488223 -0.002830196 -0.002161143 0.0031931924 -0.00010718788 -0.0015677282 -0.0037986801 0.00044036773 0.005452114 -0.0036718727 0.0028333461 0.0034738197 -0.0035053422 -0.0040757083 -0.0023157147 -0.0013327833 0.0012572377 -0.0024279538 -0.004879822 0.0013670884 0.0030342082 0.002541524 -0.00024989442 -0.0036646372 0.0023858824 -0.0031320679 -0.0041684383 -0.00055914785 0.004463381 0.0012237923 0.0042710654 0.0031843479 -0.0011171013 0.0012963506 0.0034777517 -0.0017676913 0.001653626 0.004414885 0.0036517167 0.0011356863 -0.0020993436 0.0024994174 0.004758455 -0.002470376 -0.0005542035 -0.0036522183 -0.0037374506 -0.005384516 0.0009132647 0.0015758218 0.0034802372 -0.0045919246 -0.00019304758 -0.0039604916 -0.003192317 0.00075301033 -0.0049011772 0.0008424561 0.002716938 -0.0013638808 -0.0017829776 0.0011341145
把 -0.002291838 0.0040710364 0.0048195696 -0.003335006 -0.0017864007 -0.0007310532 -0.0003295745 -0.0036809114 0.0015237831 0.0011480039 0.001467224 -0.0020582145 0.0043006837 -0.0024893617 -0.0028057527 0.0045006955 -0.002305102 -0.0024749876 0.004188385 0.00036630357 0.0032256965 -0.0048085595 -0.0032668433 -0.0034315411 -0.00077838456 0.0034976073 0.0045920354 -0.0007588155 -0.0014933553 -0.0024439052 -0.0021225717 0.0036566155 0.003021509 -0.0016020059 0.0028776044 -0.0010838383 -0.00054265297 -0.0009229155 0.0012285748 0.004242513 0.0021815458 -0.00342579 -0.00443525 -0.00071587396 -0.0044029322 -0.0047231535 -0.0016811623 -1.9693616e-05 -0.0007826361 -0.0015224208 0.0036192827 -0.0016458945 -0.0013168014 -0.0040874407 -0.0021570562 -0.0019545178 -2.3996765e-05 0.0033506174 0.0027613158 -0.00092984625 -0.004075509 0.0009947318 -0.005490519 -0.0038549735 0.0042099915 -0.0045947586 -0.002765779 0.0003158203 0.005669002 -0.0041882866 -0.0018934739 -0.0025792627 -0.0035305133 -0.004584529 0.0049769864 -0.0013254561 0.0018135863 -0.0026536307 0.0031382504 0.003334863 0.0040218565 -0.0013260866 -0.0033204283 -0.004130001 0.00040622262 -0.002415922 0.0006202634 -0.0027523441 0.0011402972 0.00030629284 0.004307692 -0.0015630005 0.0038868203 -0.0026450376 0.00079523504 0.0010566517 -0.0050918283 0.0013652159 -0.0037949646 -0.004847019
能 0.0019974203 -0.00092298654 -0.00089856936 -0.0049310206 0.00097113097 -0.00012698756 0.0027432593 -0.0023837439 0.003153329 0.0022682638 -0.0033674052 -0.0007190166 0.0023855013 0.0018481722 0.0004429901 0.004632825 -0.000817822 0.003868998 -0.004110304 -0.0006259392 0.0012070491 0.0020378376 -0.00016034338 -0.00020942547 0.003857675 0.00026470618 -0.0027074458 -0.0026145636 -0.0021292488 0.0038529837 0.0029369371 0.00346433 -0.00084439205 -0.0011672971 -0.004457596 -0.00275738 -0.0024637282 0.002168179 -0.0013676728 0.00045021728 -0.004975082 -0.0017057536 -0.0051564896 0.0030099172 -0.0034857334 -0.0013967096 0.00339176 -0.00071158615 -0.002249164 -0.0029972205 0.00058341905 -0.0027983016 0.0016972738 -0.0017448378 -0.0006394347 -0.004933307 -0.0014842845 0.0008990858 -0.0023906056 -0.0008928451 -0.0015250421 0.003277532 0.003954778 6.905969e-05 -0.0041525513 0.0034930254 0.0023977456 0.0023123652 0.0028857368 -0.0042746034 -0.0037591122 -0.002393217 0.003402268 0.0006355601 0.003995878 0.0047971546 -0.003947043 -0.0037036506 0.0031939792 2.4128674e-06 0.00023972015 -0.0039503323 -0.0016837768 -0.0019532812 -0.004178576 -0.001736072 0.0026408427 0.0041499394 -0.0014825088 0.002828895 -0.00198821 -0.00090902566 0.0043105185 4.2144375e-06 -0.0007985521 -9.0871865e-05 -0.0033047316 -0.005443133 -0.004612237 0.0022221298
、 0.0006740908 0.0003728679 -0.00438111 -0.0030030312 0.00057181146 -0.0013681934 0.00014668726 -0.0043453197 -0.0022981458 -0.0003482425 0.003930768 -0.0017618438 0.001926372 -0.0008086617 0.004873575 -0.0021530758 -0.0025843682 0.00018530631 -0.0013021132 -0.0032093287 0.00074922154 -0.0035614877 -0.002532839 -0.004382292 -0.0034376888 -0.0010569871 0.0018655746 -0.002465936 0.004510389 0.0014749884 -0.0014815878 -0.0042351945 -6.419684e-05 -0.0016902816 0.0018866906 0.0033791387 0.0037552605 0.0029942337 -0.0024704959 -0.0038353559 -0.0015446827 0.0049177227 -0.002841774 0.0037500411 0.0038438651 0.0042553893 -0.0034929228 0.0040242258 0.0026535944 0.0055372696 0.0043622665 0.0013263109 0.003918413 -0.004538764 0.004216393 -0.00062667514 0.003716317 0.004875533 -0.003823369 -0.0015199686 -0.004852535 -0.0030237522 0.0023953647 0.0032799453 0.0034526184 0.0006017754 0.0018774635 -4.9391463e-05 -0.0014803828 0.0032752967 -0.0041195834 0.003468572 0.00083170616 0.0017497222 -0.000908141 0.004032975 -0.002551057 -0.0046137176 -0.002177113 -0.0021390675 -5.4815722e-05 -0.0006130169 0.00027940725 0.0032826017 -0.00444087 0.0041100117 -0.0015624448 0.0043954123 -0.004500328 -0.0051542087 0.0006616328 0.002209752 -0.0011856902 -0.00022675512 -0.0016871432 -0.0012223715 -0.004292852 -0.0032165446 0.00010597016 0.0038392437
被 -0.00081309746 -0.000610753 -0.00034470815 -0.0011185531 0.0031460247 -0.0035855838 0.0026198598 -0.0032549843 -0.00089670415 -0.003118805 -0.0024392977 -0.0009233614 0.0012101354 0.0033172197 0.003980056 -0.004831116 0.0015272183 0.0019130165 0.0027767138 -0.004491108 -0.0027260045 -0.0036335266 -0.0021984556 2.3916934e-06 0.004111839 -0.004210692 0.004100607 0.0027143583 -0.001921959 0.0041823164 -0.0037243126 0.004161263 0.0015321227 0.0027234124 0.0031808505 0.0041608172 0.0029985372 0.0013702395 -0.0008683211 0.0045681093 -0.0017526558 0.00028833572 -0.0029217605 -0.0049705924 -0.0031680465 -0.0031730984 0.005268114 0.0028922888 0.003503648 0.0003697338 0.0010262672 0.00023877971 0.0033981507 -0.0039420915 0.0015741694 -0.0030547844 0.0005711988 0.0002849886 -0.0018593809 -0.0018142817 0.0022766464 4.5313845e-05 0.0020922797 0.00022154377 0.0043428405 -0.00065754727 0.0014256913 -0.002516945 0.0057810755 -0.00043518317 0.0046290834 0.0032414002 0.002315126 -0.002523197 0.0032234013 0.0028796478 -0.0049889265 -0.0017260797 0.0013258902 0.0011027559 -0.004335849 -0.0030610303 0.0011841756 0.004058711 -0.0003609507 -0.002761702 0.0017380292 0.0021979334 -0.0018912983 0.0038207641 0.0004624106 -0.0012738662 -0.0009859751 0.0032444627 -0.0042584017 -0.0032125441 -0.00015272615 -0.0003468751 0.0033696361 -0.004824784
拜拜 -0.004124306 -0.003024276 0.00031449398 0.0029652466 -0.0038062632 0.0013769574 -0.0002991038 0.0036406082 0.005015147 0.0025920696 -0.0029202336 -0.003745764 0.0025982293 0.0045965635 0.0036456939 -0.004517855 0.0049795867 -0.00405919 0.003116794 0.0035775835 -0.005134132 0.0021114887 -0.0028897193 -0.0011575812 0.0049012476 -0.0040379222 0.002935224 -0.0011113571 0.0013304553 0.0032609573 0.0003908339 -0.0015860009 0.0041543995 0.0030341742 -0.0018755539 0.0020855055 -0.0024814645 0.0015287775 0.0047836197 -0.00073341414 0.001696107 -5.55527e-05 0.003860657 -0.0015047255 -0.0010324194 -0.0042602 0.00012831988 -0.0039905426 0.0032037282 0.0035781683 0.0027989356 -0.0028787267 -0.0033979383 -0.003399272 0.00037747875 0.0030141163 0.0038293817 0.0039073844 -0.0026123552 0.0054668835 0.0039160494 -0.0004751831 0.00024995315 -0.0015292775 0.0027665263 0.0009904394 -0.0047394256 0.0023579411 -0.0017272542 0.0037447582 -0.004222646 0.0009331549 0.0017841657 -0.00020626414 -0.0047579207 0.0008147869 0.00055796053 0.0035334919 0.0027602774 -0.00033200101 0.0009625269 -0.00039544475 -0.0027638858 -0.0008980609 0.0010548093 0.004916056 -0.0015235431 -0.0024933652 9.79657e-05 -0.0017535317 -0.00020263187 0.0014483212 0.00035401984 0.0026897956 0.0030181531 -0.004489378 0.0028797744 -0.0010826418 0.0006743394 -0.0019762695
还是 -0.0022726958 -0.0039963042 0.0014119117 -0.0046027876 0.0043370845 -0.0026057852 -0.0024818042 -0.00095964427 -0.0009517948 0.001082941 -0.004265476 0.004278994 -0.0033195834 0.0008003201 0.00031886462 0.0012553697 -1.6268341e-05 0.0030961484 0.0036326076 -0.0026139247 -0.00449452 0.0007403113 0.0032779176 -0.0030763103 -0.0045121307 -0.0012045557 -0.004199074 -0.0045069684 0.0015447107 0.004980229 0.0014646389 0.0016079735 -0.0040257634 0.0045088506 -0.003451589 -0.0042181704 -0.0016050205 -0.0044847443 -0.0039766943 0.0017409049 -0.0030280128 -0.0015495719 0.0006644588 -0.0011728958 -0.00296833 -0.0039214254 -1.0538126e-05 0.0013047359 -0.0006794818 -0.000967763 -0.0008212063 0.0014200461 0.005266229 0.004696743 3.392387e-05 0.0022868603 0.00053799246 -0.0010855333 -0.0007078113 0.005258983 -0.0035300099 -0.005578243 -0.005170275 0.00039398513 0.0031222606 -0.0025963238 0.003692167 0.005337709 0.003394747 0.0009999332 0.003527981 0.0034761198 0.000608685 0.0008822275 -0.0018694517 0.00082624756 -0.0043658093 0.0007030378 -0.0012910694 0.00019593051 0.004506512 -0.003952366 0.0034280638 0.002544347 0.003922647 -0.0045483774 -0.003041314 -0.004627461 0.0027268387 0.0033730322 -0.0025892314 0.00052717753 0.0012764786 -0.0033132362 -0.00059116643 -0.002487002 -0.003234079 -0.0027224028 0.0044768504 -0.0038121655
给 -0.00017931552 0.004610519 -0.0032676684 -0.0012901883 0.005019339 0.002757365 -6.0810253e-05 0.0043507423 0.0012987272 -0.0022642405 -0.0052158 -0.0033246386 0.0012611441 0.0010348258 -0.0035675725 0.004460378 -0.0024715313 -0.001320587 0.0017724215 0.0034080243 0.005319347 -0.003362186 -0.0028000805 -0.0049213683 -0.002622471 -0.0010212766 0.0016113644 -0.00085520244 -0.0032583545 -0.0024479886 0.0021365902 -0.0019456858 0.004501744 -0.0013309486 -0.0017716282 -0.00032400643 -0.0015182837 0.00029899986 -0.0005437818 -0.00055577606 -0.0006860719 -0.0034177944 0.0005114372 -0.0037030277 0.0029335346 -0.003627811 0.0012093877 0.0003746851 0.0005118341 0.0016272139 0.0034914985 0.0025313224 -0.0033614126 -0.0032522602 -0.0020809728 -0.0026236926 -0.0024055257 -0.0040619113 0.0013684744 0.0012239269 -0.0047813756 -0.0019084805 -0.0029022738 0.002651935 -0.0014692179 -0.0056243413 0.0041632927 0.002632679 -0.00047251311 0.0026137093 0.002918792 -1.9841173e-05 -0.0041300086 -0.003292517 0.0012157005 -0.0018566954 -0.003126974 -0.0016764548 3.6566093e-05 -0.0007888801 -0.00079520186 0.0030806507 -0.00024257608 0.0011115532 -0.0029461815 0.0034706423 -0.0020503676 -0.00033971755 0.001733607 0.0016211437 -0.0015329781 -0.00032835815 0.0028704135 -0.0013038395 5.043106e-06 -0.0014520667 0.0024282204 0.0023822149 0.0011316686 0.0025577468
一天 -0.003908375 -0.00089677674 0.0036089413 0.001871935 0.003941028 0.000115816365 -0.0048023486 -0.0016582861 0.0016104357 0.0024450498 -0.0043432084 -0.00071649195 -0.002313139 0.0033279213 -0.0043265065 0.004380368 -0.0032649229 -0.0001235087 -0.0018872968 0.00062321103 -0.0016208309 -0.0039209235 -0.0040904274 -0.0015937246 0.0034984625 0.0016306632 0.0028776226 -0.0045651877 -0.0034265167 0.004586936 0.0017891859 0.0026322105 0.0014261589 0.0009855283 -0.0019777203 -0.003622734 0.004625499 -0.001312898 -0.00026500295 -0.002531754 0.0018483861 -0.0012487175 0.0045453734 -0.0048014848 0.001702716 0.003342185 0.00053742545 -0.0049405843 0.003929189 -0.0039719115 -0.0022790863 0.00039235572 0.0024970665 -0.0027464216 0.0031202722 -0.004857352 0.004445263 0.003580111 0.0020023144 0.0035268383 0.0029324575 -0.0040105805 -0.0013148108 0.0022009392 0.0005466816 -0.0036971092 -0.0011183796 0.004498506 0.0016360409 0.0015272985 -0.00023287481 0.0014290309 0.0045860014 0.003893184 0.002511575 -0.00040968278 -0.004478166 -0.0007134202 0.002386459 0.003625176 0.0019104393 -0.004703252 0.0021410314 -0.00030819958 0.00043466946 -0.0050569787 -0.0034694443 0.0016472915 -0.00066560524 0.0015267398 -0.0036682538 0.0011670721 -0.0026503152 0.004840381 0.0014797435 -0.0021617257 -0.0010044914 -0.0041550035 0.0027485858 0.00384057
最 0.004802904 0.0014133827 0.0036295075 -0.0012488575 0.0007116203 0.0051723886 -0.0014583317 -0.0016329876 -0.0026144108 0.0039792154 0.0026471347 0.0009622533 -0.004696801 0.0016368644 0.0027620632 0.0021186692 -0.0037287218 -0.0021165842 0.0028989608 -0.0020714772 -0.0018825886 -0.0020378397 -0.003274288 0.0031078835 -0.0046627694 0.002879064 0.0015948137 0.004630607 0.0047378386 0.0056386637 -0.0045441557 0.0019991447 -0.0010986858 -0.0027649736 -0.00015595155 -0.003493087 -0.002463325 0.0040103085 -0.001261618 0.0015992331 0.001711736 0.0013267513 0.0016111721 0.0023304587 -0.002717673 0.002740031 0.0014463876 0.00017414529 0.0008302958 0.0045940457 0.0017947475 -0.00047786412 0.0010151013 -0.0046987874 -0.0042675813 0.0032805596 -0.0007782477 0.0004963487 -0.0014543528 0.00206599 -0.003822041 0.0012567554 -0.0005376508 0.000998128 -6.640032e-05 -0.001350062 -0.0013841514 0.0042845164 0.0024910679 0.004726832 0.0009024508 -0.0041708555 0.003536008 0.00037621733 -0.0030107244 -0.00034733588 0.0012733436 -0.004211736 0.0019342088 -0.0016568227 0.0028562364 -0.0042690625 0.0040722173 -0.0004082428 7.1886307e-06 0.0020742547 0.0047489963 0.0026893774 -0.0006116478 0.0015891717 -0.002264122 -0.0042033135 -0.000700492 0.0046240836 -0.00048185914 0.0023066998 -0.0019301507 -0.004947281 -0.001891136 0.004318934
笑 -0.00021282023 0.0043451684 0.004577131 -0.0050427285 0.0026014538 -0.0044685295 0.0042655272 -0.0012908743 -0.0010645682 -0.0034850878 -0.003650161 0.0025687714 -0.0010728453 -0.0033025097 0.0050474233 0.00013393056 0.0018651133 -0.0026326624 -0.0033352484 -0.004194602 -0.0008129227 -0.0017917778 0.0011858953 -0.0016820949 0.00019445313 0.0031469895 0.0026131696 0.004192752 -0.0047111926 0.00026890883 -0.0009992087 0.004191093 0.0052163103 1.9892857e-05 -0.0028120463 0.0006221992 -0.0017859546 -5.1337378e-05 0.0016964956 -0.0015415016 0.0030792456 -0.002868068 -0.000599479 -0.0041315937 -0.00241333 0.004936385 -0.0024024793 -0.0034174542 0.0036646768 -0.004231023 0.0036680317 0.0037002533 0.0024432843 -0.0036496955 0.00044822553 -0.0039669783 0.0005539238 -0.0004489693 0.0010809117 0.0015766924 0.00015768172 0.0031367247 0.00196263 0.004810958 -0.00015784337 -0.0054303766 -0.0025470227 -0.0011486904 0.0051120613 0.0040717064 -0.004283311 -0.0043524806 0.0031130635 -0.004621476 -0.0027353275 -0.0007260725 0.0028188878 -0.0039697653 0.0037229136 0.0003004057 0.0031152687 0.004306463 0.005030528 0.0024735215 0.002278645 -0.0028052798 0.0019497721 -0.0033988196 0.002463552 0.003773213 -0.00090890704 -0.002356708 -0.0007340109 -0.0041158427 -0.004568098 0.0020629843 0.0014884926 0.0009738209 0.0008902683 -0.0015138811
世界 0.0021233824 0.00042540045 -0.00071023556 0.0019776851 0.0036046393 -0.00093108596 -7.121283e-05 0.00063046475 -0.0033727207 0.0036724063 -0.00069939904 -0.0016385099 0.00044885185 -0.0019628615 0.0036785558 -0.0017004947 0.002508908 0.0050462685 -0.004133268 -0.0012457868 0.0029443915 0.0037863106 0.0037985812 -0.0028599973 0.0037627632 -0.0042122174 -0.0023549236 -0.0022669989 -0.0020500685 -0.0027088642 0.003971535 -0.001035926 -0.002053865 0.0045224354 -0.00032918868 0.0032575575 -0.0034774262 -0.00088019425 -0.0009907646 -5.561447e-06 -0.0015601631 0.000736932 -0.0005702764 -0.00034064468 -0.0009942205 0.0022785328 -0.004240787 0.0014843562 -0.00091440754 0.0017010211 0.005294383 -0.00061256596 0.0014688659 0.004321835 0.0019293551 -0.0008754084 -0.0036463102 0.0018443135 -0.0042843674 0.0010677421 0.0012569813 -0.005239334 -0.0032568022 0.0039578425 -0.003312814 -0.0013391165 -0.0036679134 -0.00031580264 0.0030216053 0.002844741 -0.004492924 -0.0013090647 0.0049813613 -0.00419737 -0.00082226645 -0.0025158597 -0.0012993239 -0.0031801567 -0.004286604 0.00295819 -0.0021657755 0.0039019713 -0.002154699 -0.0015702564 0.0036242947 0.0009200423 -0.0050585843 0.00313373 0.0029810478 0.00015081029 0.0049525215 0.0017269962 0.0026066357 -0.0013998689 0.0015657493 0.003818686 -0.004726657 -0.0017773212 -0.0029510944 0.00012104302
哭 -0.0006651381 -0.004409123 -0.0032839593 0.002782216 -0.0025545177 0.002042383 -0.004586826 -0.0025873324 -0.004241734 -0.0030258463 0.0019212263 -0.004694513 -0.0045027793 -0.0019584934 0.002877831 -0.0024028767 -0.0034459042 -0.0013056971 0.0016481647 -0.004287217 0.0021141937 0.004534635 -0.0014256589 0.0013450161 0.0026859846 0.00017515154 0.0011753797 -0.00433523 0.0031903307 2.9044155e-05 0.0020321284 0.002862583 -0.00473024 0.00390017 0.00020266169 -0.0043842313 -0.0034025148 0.0044144546 0.0022295818 -0.0020233185 -0.0050486512 0.0005169976 -4.121765e-05 -0.002249594 -0.0034161927 0.0032577238 -0.0031663056 0.0022312782 0.0027957957 0.0041745408 0.0037739833 -0.0039510424 -0.00354562 -0.0034986115 0.0016348968 -0.0036855126 0.0020629275 0.0013508762 0.0039638504 -0.0006926473 -0.00223679 0.0023448577 -0.0025153805 -0.0044713127 -0.0013257154 0.0020305326 0.00016465854 -0.0033969746 -0.0042618043 0.0028063587 0.0020700272 -0.004889547 0.00357268 0.0038095594 -0.00015683292 0.0007766287 -0.0043808273 -0.0045631495 -0.0012456732 -0.0035715406 -0.0024809386 0.0044855527 0.00062581716 -0.0046424204 0.0035209123 -0.0021769009 -0.0004668802 0.0018689608 0.004742789 0.0012802436 0.0028863377 -0.0023484956 0.002479171 -0.0005445638 0.003300285 0.0046790596 -0.0032439965 0.0008628845 -0.003141922 0.0007885039
上 -0.0012134657 0.0006076701 0.0035065836 0.0022073337 -0.0010366216 0.0051680603 0.0026294421 0.00037944762 -0.0029551827 -0.0026487082 -0.0028178515 -0.0049811676 -0.0028537961 -0.0032801745 -0.0002473227 0.0005570882 0.0025616921 0.002325022 0.0029856334 -0.0010739123 0.0011830465 0.002660481 -0.0010452765 0.002625194 0.003305752 -0.003793742 0.002561745 5.2541105e-05 0.0042964034 0.00074842817 -0.002775173 -0.0039541507 0.0019057755 -0.0013779965 -0.002397062 -0.003380028 -0.0037911767 -0.0033486083 0.0029014107 -0.0023386173 -0.005621671 0.0014802045 -0.0022417754 0.002030705 0.0014944888 0.0047639892 -0.00038873835 -0.0046819523 0.00040461845 -0.0011581257 0.00038629703 -0.0042659887 0.0054123807 -0.0018945576 -0.0031410828 0.0041019605 -0.003506667 0.0018580931 0.0035986004 8.120793e-05 -0.0023801273 -0.0010396461 -0.0026621998 0.003737569 0.0015430527 -0.004386969 0.0027750416 -0.0030810188 0.005846797 0.0038493318 -0.00096105825 -0.0005001953 0.0025310814 0.0013982229 -0.0039753043 0.0030898566 0.00026512356 -0.0052074688 -0.001400439 0.002036678 0.00039121057 -0.0013512308 0.0009318713 0.0009227355 -0.0013615823 -0.005055298 0.0032401567 0.00016583166 -0.0010914431 -0.0036594549 0.0040787864 -0.004282573 0.004157073 -0.0042053824 -0.0025479293 -0.0017396489 -0.0006039613 0.00086696673 0.0033802623 0.0004550717
徐 0.005106845 0.002305682 -0.003275112 0.0013911505 0.0027769688 0.0019219595 0.0027012802 0.0052467766 0.0024911566 0.0050532385 0.00032517448 0.0042881453 0.0028007631 -0.0002802217 -0.0036036621 -0.00061807525 0.0026247539 0.0018546862 0.003851147 -0.003727037 -0.0033818218 -0.0028444175 -0.003187892 -0.0011920112 -0.0011608532 -0.0031607393 0.004845443 -0.0027193353 0.004647039 0.0034639807 0.004266861 0.004870682 -0.0010614734 -0.0021568628 0.0011531956 0.0021796376 0.0031428211 0.0037795603 -0.0027927072 0.0012072144 0.0031503644 -0.0026149582 -0.0023532554 -0.0042130165 -0.0043429956 -0.0019512615 0.00074347487 0.0031233663 0.004896258 0.003915192 0.0039677355 -0.0004299238 0.003778178 0.0032043015 -0.0047559226 0.0009364883 -0.0038569223 -0.00054776616 0.0012243862 -0.0015084638 -0.0025114368 0.0030789434 -0.0048519894 0.0022771133 0.0025012575 -0.005858867 0.00024974678 0.004382521 -0.0004011903 -0.0031186107 -0.003756303 0.0039356938 -0.0027556845 -0.00014843326 0.0051663634 0.0031811523 0.004935173 0.0015227853 0.0041774744 0.00022184786 0.0022280975 0.0044300808 -0.002756429 0.0047677574 0.0016352773 -0.0015154238 -0.0007238122 0.0012325939 0.0034409005 0.0015218698 -0.0033335376 0.0014018901 0.0033680534 -0.0038089026 -0.002286944 -0.0028967895 -0.0036279785 0.0021131304 -0.0017288362 0.0043640183
这个 -0.0031496584 0.00068452285 0.0030826917 -0.0012442352 -0.00012697981 6.120739e-05 -0.0034210947 0.00043048605 -0.0030904606 -0.004283345 -0.005303497 -0.000686071 -0.00020592156 0.00026238308 -0.00024676844 -0.0033483843 -0.00436475 0.004163809 -0.0021693117 -0.00047546742 -0.001876632 -0.0049855816 0.0010187296 0.0021898078 -0.0033221194 0.0028825703 -0.0046936795 -0.0021788308 -0.0013641209 -0.0010461621 -0.0030927507 0.0013349416 0.0015173511 -0.0036037746 -0.0034866354 0.003356412 0.004419 -0.001071824 0.0036266018 0.0024341426 0.0019216418 0.0029412124 -1.2054053e-05 0.002139631 0.001934531 0.0043183174 -0.0009666758 0.00031384983 0.00042353166 0.0002872223 -0.00041612578 0.0029251971 0.0032379592 0.000990555 0.00015697912 0.0034601172 0.0022566423 0.0039111758 -0.0028203262 0.0050414633 -0.004104574 0.002870109 -5.2543255e-05 -0.0028110142 -0.0029123733 -0.0026604768 0.0016275127 0.00236934 -0.003642588 -0.0034147692 0.0011838989 0.0013772284 0.0021293873 -0.004894698 0.0021189288 0.004794246 -0.0017067984 0.0010016719 -0.0041084886 0.0034962373 -0.0026439016 0.0038583907 -0.003951303 -0.0043221377 0.00039823374 0.000606634 -0.004004086 0.0037597688 0.0023156952 -0.004421214 -0.0033873701 0.002840134 0.0022251362 -0.0004672411 0.0044047115 -0.0020184927 -0.00096137583 -0.0029179207 0.0032854206 -0.0025670284
还有 -0.00054544606 0.0008067642 0.0027811143 -0.0044038827 0.0002776719 -0.0006534392 0.002388111 0.0044415714 -0.001791371 0.0008971323 -0.0012023133 -0.0030603732 0.0030915753 0.0020508056 -0.0012388086 0.0028595729 -0.0003184126 0.0013557946 -0.0044007567 0.00014641671 -3.2919022e-05 0.0004140099 -0.0029232395 0.0024834983 -0.0009889496 0.0030179378 -0.0020633386 0.0041325274 -0.004165471 0.0010461553 -0.0021476902 -0.0027529756 0.0051457817 -0.0019607074 -0.0021142154 0.00011008198 0.0032456294 -0.0016872705 0.0012563481 0.0039162613 -0.004586428 0.0039731935 0.004066734 -2.268058e-05 0.0027464197 -0.0019892382 -0.000778706 -0.003188444 -0.0047253575 0.0031404812 -0.003654334 -0.0018697509 -0.0009347427 -0.0035059338 -0.0030467613 0.0030285455 -0.004626633 0.0045930487 0.002208597 -0.0031091326 0.0020223747 -0.003926282 0.00045032005 0.0023291288 -0.004174602 -0.0033315066 0.0030086115 -0.0046184934 -0.0038515008 -0.0019158708 -0.0022673036 0.00096774194 0.004881619 0.0024430854 0.004670858 -0.002780434 0.0043960074 -0.005428504 0.0019381259 0.0031021093 -0.00287646 -0.004276253 -0.001613907 0.002775545 -0.0029818641 0.00011318303 -0.0040430925 -3.4032993e-05 0.0041556493 -0.0013642461 0.00025320152 0.002822712 -0.0024200473 -0.0041338904 -0.0029719807 -0.004440198 0.0031585551 0.002006682 0.003769787 -0.004131053
学校 -0.0042589386 -0.00072972785 0.0035409483 -0.00086542417 -0.001789021 0.0049657333 0.0031658884 -0.0025723984 -0.0033777766 -0.0023215127 0.0018425431 0.0029601462 0.0011601065 -0.0026057432 0.003628882 0.0021772722 -8.6168475e-05 0.0021943916 0.0050639757 -0.0039713844 -0.003033355 0.002217241 -0.00073426776 0.001780167 0.0020812652 0.0031092854 4.9047398e-05 -0.0042995177 0.0008511628 -0.0016770539 0.004578065 -0.0011863937 0.0012460238 -0.0002462143 0.0019492356 -0.004410017 0.003347147 -0.0024191833 -0.0008449656 -0.0033450471 0.0018843352 -0.0015038813 0.0014208676 0.0045461934 -0.0027992928 -0.0021549407 -0.0047126147 -0.0013973357 -0.0029459207 -0.00029649286 0.003985902 0.0012130707 -0.0024425616 0.0031908832 -0.00066524866 0.0043648956 0.003989768 -0.0029026042 -0.000589561 -0.0016234554 -0.002325662 0.0034945693 0.003947672 -0.0031778954 -0.003517664 0.0042267363 -1.0711759e-05 -0.0038318944 -0.00095493125 0.0025169104 0.0028904045 -0.0011339275 0.0038691324 0.0034440893 -0.0017012907 -0.0030612587 -0.000644609 0.0028994395 -0.0012574615 -0.002550812 0.0031246345 0.0049578534 -0.004140176 0.0025782601 0.0048848633 0.0015804837 0.00448831 0.0022345171 0.0010075676 0.0045677614 -0.002782733 -0.0002969586 0.0011885335 0.0045659477 -0.002906441 -9.0020185e-05 -0.004818193 0.0044097593 -0.0021495714 0.004851181
老师 0.0013189318 0.002981503 0.004875131 0.002181752 -0.0028176808 -0.0025157672 -0.003952457 0.003921603 -0.0018094003 0.0009903528 0.0021908088 0.0009057082 0.0040809507 0.0030747405 -0.0027497455 0.002845745 0.0019183491 0.0038124425 1.2868746e-05 -0.00029082486 -0.0045923083 0.0002653275 -0.0042838827 0.0031637154 -0.0027315856 0.0016648128 -0.0011560086 0.0033884922 0.0036715206 -6.952332e-05 0.0043753283 0.0011105022 0.00087182596 -0.0010402729 0.0013819113 0.0035930339 -0.0024542895 -0.0025912167 0.004415042 0.0022420562 0.0035648283 -0.0005680735 0.00023462751 0.003574449 -0.004439142 0.0031899086 0.005135752 -0.0046237907 -0.003977444 -0.0018320619 0.004250248 -0.0031139876 0.00015864028 -0.004362693 -0.0034488235 -0.0018558078 0.0014449082 0.00043585725 -0.0026141054 -0.0023955575 0.0046951654 -0.0018110685 0.0028022686 -0.004918399 -0.00028120377 -0.00015512963 -0.0005976188 0.0033531047 0.003640725 -0.0044295383 -0.0032715544 -0.0019054876 0.00392561 -0.0036010812 0.0016491419 0.004548365 -0.0027806466 -0.004427886 0.00049434154 -0.0023044965 0.0051468597 -0.002653 -0.0024346905 -0.0025429856 -0.0018968281 -0.0033783063 -0.002851775 -0.004622318 0.00020895229 -0.000568176 0.00468877 -0.001619378 0.0044930424 -0.0035542434 0.004169604 -0.0027680644 0.0027404954 0.0034140318 -0.0028172862 0.00331569
得 -0.00045503306 0.0035615435 0.0037962196 -0.0052215015 -0.0015715326 -0.004061612 0.0045729578 -0.004578456 0.002596962 -0.0012846325 -0.0040732715 0.00018274829 0.0017157495 -0.0044083875 -0.0008515391 0.0041425964 0.0046312474 -0.0040129824 -0.0006205965 0.004294933 -0.0013487594 0.0026076366 -0.0013533699 -0.0037521524 0.0045339987 -0.002418851 -0.00011854469 0.0030747312 -0.0011750672 -0.0017420491 -0.00315845 -0.0042522238 0.000978261 0.0047731213 -0.0020517893 0.002146516 -0.001676087 0.003949195 0.0012385624 0.0041008983 -0.002104226 -0.0038715827 0.0039465693 0.00069662684 0.0025102056 -0.0041028066 0.0037429803 -0.0035669196 -0.0028229102 -0.00019874297 0.0046414607 -0.0028018192 -0.00079109723 -0.0021786722 0.0015650302 -0.0015535924 -0.002385113 0.0005820239 -0.0043546204 -0.0034454048 0.0028593454 -0.003907878 -0.0044510197 -0.002003627 0.0018786844 0.0006396335 -0.0021497193 0.002473237 0.00020212412 -0.0029198395 -0.005211949 0.0035940604 5.852755e-05 0.004113275 0.0009894696 0.0046023754 0.0012837548 0.0010517346 0.0018324947 -0.0034718 -0.0030225255 0.004280383 0.004811396 0.00061571243 0.0020173078 -0.003383966 -0.0002833649 -0.00037065905 -0.00085532386 -0.005416799 0.0005716556 -0.0019896321 0.0010577603 -0.0027748586 -0.0032097076 -0.002444969 0.0026091642 -0.0011047542 -0.001885288 0.0011749297
来 -0.0026756912 0.0019593386 0.0020876492 0.002676628 0.0015104944 -0.00044009823 0.002348836 -0.00023592431 -0.001256128 0.0026686173 0.003797331 -0.004755668 -0.0050061117 0.00048152663 0.0031333487 -0.0006016328 0.0025125698 -0.004185612 -0.0013022143 -0.002069217 -0.0027320948 -0.002987679 0.0024637496 -0.002228984 -0.0019960017 -0.0024014278 0.0031460547 0.00061676576 -0.003294844 0.00030054673 -0.0012656428 -0.00023276272 0.003208781 0.0037775738 -0.002941736 0.004414048 0.0045243064 0.001200251 -0.00016887455 -0.0014764293 -0.0029976864 -0.002694507 0.0011864809 0.0034850668 -0.0036653762 -1.6332535e-05 -0.0035132854 0.0009860091 0.0020358548 0.002344639 0.003990766 -0.0015220384 -0.0029413474 0.002492805 -0.004406806 -0.004664825 -0.0043985476 -0.0016255032 -0.00066328613 0.0008446952 0.0028771807 0.00094778545 -0.0016449044 -0.0037016056 0.0030758365 -0.0022740474 -0.00252053 -0.0027620483 0.0046040793 0.003931095 0.0032793768 0.00064509717 0.0037997372 0.003289764 0.0033826206 -0.00054188364 0.0028646083 -0.00094142725 -0.004321784 -9.5489544e-05 0.0038738474 -0.001326571 -0.002723246 -0.0019434566 -0.0003035912 -0.0036100564 0.0043299007 -0.004119294 -0.0040364987 -0.0049629863 0.0036533368 -0.0006944771 0.0029105674 -0.003167072 -0.0041694683 0.0016234615 0.0020732493 0.0014654101 0.0005077474 0.0048731617
人家 -0.0032152252 -0.0026558319 0.005123401 -0.0028265961 -0.00089558866 0.00085394265 0.0012226092 0.0031532918 -0.0011796595 0.00027830258 -0.0012741182 -0.00055583473 -0.004400263 0.00489008 -0.0006203521 0.0033584847 -0.0010636613 0.0035349221 0.004700081 0.0016848556 0.0019963004 -0.0033532176 -0.004788761 -0.0027845472 0.00010798179 -0.0046607647 -7.7295546e-05 0.0015799018 -0.0021270984 -0.0012462236 -0.003806425 -0.004954358 -0.0048668426 0.001649664 0.004201284 -0.0020257565 -0.0045408234 -0.0029285422 0.00026943116 -0.0032504098 -0.0043893447 -0.00047947717 -0.0016920174 0.0019024676 -0.0005178884 -0.004484579 -0.0015741845 0.0045456565 0.0027046527 -0.0025991988 0.0014215278 -0.00330311 -0.00064832694 -0.0032415318 -0.001183111 -0.003255887 -0.0017449069 0.0017486266 -0.0020503835 0.0050260206 0.00059868884 -0.0043770378 -0.0032701402 -0.004887724 -0.0009040692 -0.0013577411 0.0042153443 0.0033671176 -0.004167667 -0.004079244 -0.0011419527 0.0019349267 0.0033420532 -0.0044227093 0.0011657457 0.0023721524 -0.00086834707 -0.0005259407 -0.004491666 0.0001661964 0.004155242 -0.003264607 -0.003987678 0.0005433308 0.0016506546 0.0041507273 0.0026045342 0.0011471435 -0.003641336 -0.003705418 0.0039722947 0.00023799541 -0.0026609057 -0.00435011 -0.0028326586 0.0027536915 0.004318314 0.003107794 0.004255584 -0.0045851455
不要 -0.0037358159 0.0017349459 0.0052440385 0.0046282634 -0.0032359862 0.0022629702 -0.0007204128 7.504627e-05 0.0032092403 0.0009715159 0.0032244746 -0.0045287795 0.0042994246 0.004197932 0.00025846116 0.0014079241 -0.004644302 0.005251984 -0.00041157813 -0.003229408 0.004542619 -0.0027617477 -0.0046739466 0.001954683 -0.00029007436 0.0046023466 0.0013136473 0.00032229684 -0.0024293412 -0.0018376783 -0.0033386082 -0.0046600257 -0.0018504772 -0.00025019672 -0.003860747 -0.0010364675 0.0018145291 -0.0013801826 -0.00023326642 -0.0025561587 0.0025985085 0.000716384 -0.0021689932 -0.0028286846 -0.003941176 -0.003929024 0.0050456263 0.001886058 -0.0026174048 0.0047001746 0.0037259157 0.00022042108 -0.002292477 -0.0031993885 0.0019166205 0.00012856782 -0.00435776 -0.004839312 0.0007773367 0.00041391246 -0.003932975 -0.0046348497 -0.0020315135 -0.001736948 -0.0054130205 -0.0047073714 0.0038548703 0.002006472 0.0031259053 -0.0022237252 -6.8160654e-05 0.002409913 0.004265426 -0.0028539624 0.00395829 0.0022609006 -0.002702506 0.0035258373 -0.001944602 0.0008255965 0.0028359042 -0.00094175636 -0.004421036 0.0006275828 0.0048040533 -0.00025863413 0.0010577148 -0.002515895 -0.0035633221 0.0007237822 -0.0010226626 -0.000630589 -0.001164336 0.002449384 0.0037711987 0.0029744096 0.004353016 -0.0050848676 -0.002428004 -0.00068109436
再 0.0024975948 -0.0017880324 0.0024709818 -0.00015599311 0.002611657 0.004465843 -0.0011378829 -0.004226823 -4.163735e-05 0.00474291 -0.0036240357 -0.004664121 -0.0016746746 0.0017869393 -9.5681215e-05 0.002333433 -0.0028015128 0.0033238654 0.0029209196 -0.003473194 -0.00047700468 8.927445e-05 0.0012526498 -5.4066268e-06 0.004062849 0.0016074326 -0.00069589383 -0.0004614386 -0.00398396 0.0041587274 0.0032183453 -0.00020825007 0.0038787222 0.0029300973 0.0010497901 0.0036297552 0.000958496 -4.7334306e-05 -0.0005519517 0.003881683 -0.0025915601 0.0018501444 -0.00056932715 0.0045006783 0.0009870135 -0.000367543 0.0009493458 0.004215034 -0.0006728056 0.00043762795 -0.00021749016 -0.0028674547 0.0035572296 -0.0035815164 -0.0006060838 -0.00028384247 0.0045819515 -0.0048619807 -0.0005024067 0.0017675762 0.0034803308 -0.0021904185 0.0020703557 -0.0024044425 0.0035327403 -0.0030274622 0.005114904 0.0011120737 -0.0018121138 0.0010323221 -0.0047431863 0.0013074031 -0.0021600483 -0.0040195757 0.0020446104 -0.0029173284 0.0031189176 -0.004270273 -0.003403594 5.295611e-05 0.0025829046 0.0007777498 -0.0050308504 -0.0030589248 0.002981847 -0.00020351153 0.0024426167 0.00031717235 -0.0006381817 -0.0022927928 -0.0012087141 -0.0052814214 0.002659906 0.0014562155 0.002151034 -0.0023635647 -0.0004795539 0.0045425906 -0.003117787 0.0013866718
转发 0.0018444534 -0.00067014823 -0.0024378665 0.0035494189 -0.0014961411 0.0024571065 -0.0033892323 0.0016904676 0.0019260055 0.0035642665 -0.004165688 0.003265935 -0.0031785755 0.0005270993 -0.004522579 0.0017668667 0.0016668655 0.0053759688 -0.000792113 0.0011056345 0.004415919 0.0037416327 -0.00073619385 0.0041316613 0.004625604 0.0010437628 -0.0016298615 0.0013602994 -0.0032344752 0.0035170054 -0.0032468766 0.0024171632 0.00012901645 0.0039423215 -0.004639346 -0.00016648711 2.5637159e-05 0.0034378332 -0.0043642307 -0.004781514 0.0017379865 0.0014050279 0.003886076 -0.0041386015 0.0018123697 0.0012766185 0.0011955767 0.00049335224 -0.0032734643 -0.0033783934 -0.004055325 0.0046949605 0.00068290177 0.00033018948 -0.002715326 0.003671352 0.00061771553 0.00075992243 -0.0015230104 0.003497647 -0.0018063501 -0.0015595305 -0.004971357 0.002466221 -0.0018191293 0.0031927929 -0.0005324392 -0.0041394737 0.0026721002 -0.0043777507 0.004413339 -0.0039516226 -0.0012964949 0.0030236416 0.0023684488 -0.0032845545 0.004932114 0.0017002439 -0.003359324 0.0027728346 -0.00052958785 0.00037570013 -0.0007843744 0.0050439425 0.0022170108 0.0014539283 0.0005040592 -0.002861824 -0.0039005082 0.00048540728 0.004433135 -0.0044263443 -0.00384831 0.002060467 -0.003214411 0.0032123914 -0.0012384937 7.824662e-05 0.004710722 0.0004046416
现在 0.0023322008 -0.0013845492 -0.0034563863 0.0039721867 0.0031570855 0.001325843 -0.0049022757 -0.0028020567 0.0007681006 0.0010415172 0.0010885075 7.365834e-05 0.00014610747 0.0027052504 0.0037948329 0.0011947248 -0.003650906 0.0034814822 0.0029443104 -0.0024569468 0.0034938091 -0.0014324078 -0.00051153125 -0.0009906924 -0.0035099124 0.004267146 0.004574812 -0.00046884353 0.0040007113 -0.0016469313 -0.0049389508 -0.0015174495 0.0023632261 0.0041349004 -0.0013314553 0.0032778077 0.0018192178 -0.0032522813 -0.0010787499 -3.789917e-05 -0.0009129501 0.004368816 0.00032891176 -0.0010635353 0.0007412951 -0.003179076 0.0018784675 -0.004901252 -0.003024916 -6.409577e-05 0.0047250167 -0.00020213514 -0.00089176383 0.0032419309 0.0018527918 0.0015976707 -0.0035707322 -0.0026169065 3.8618564e-05 0.0041999496 -0.002064872 0.0005437478 -0.0009520829 0.0023386362 -0.0035023878 -0.004092607 -0.00030478116 0.001124488 -0.0011304204 0.0036564183 -0.003869995 -0.003394706 -0.0043126903 0.0005232887 -0.004507206 -0.0022673546 0.0031118381 -0.001963774 -0.004153147 -0.004541092 0.0049241562 0.0049758446 0.0022975665 -0.0042180372 0.0011516814 -0.0030804623 -0.004763313 0.0022006459 0.0016378538 -0.005354211 -0.0008428762 0.004561161 -0.0020870883 -0.0040279995 -0.002510764 -0.0011511957 -0.0013714073 0.002094283 -0.002155761 -0.002238093
已经 -0.0013280202 0.0021027504 0.0022092257 0.00027375572 0.003892942 -0.0019874475 0.0044690073 0.0005750097 -0.0027897463 0.00030684436 0.0028071364 0.0033376133 -0.0017669306 -0.0029838702 0.0025169267 -0.0010934724 -0.0045176023 0.00021414204 0.0035898003 -0.00039134393 -0.0011639848 -0.0030324704 -0.0012507514 -0.0018992343 -0.0041145966 -0.003819559 0.0033384333 0.0020980572 0.004130579 0.0012814153 0.0032335848 0.004066416 -0.0033515578 -0.00036999275 -0.0043616877 -0.0003272959 0.0003310197 -0.00017108722 0.0042194836 0.0044536423 -0.00054920244 0.0030267267 0.0034190011 -0.00020850569 0.00022536753 -0.003775675 -0.0017789651 0.00024646882 0.0015924997 0.0023001002 -0.0008475608 -0.0024429052 0.0037365826 -0.0026216863 0.0010344752 -0.00020257296 -0.0024357904 0.0007677428 0.0015131887 -0.00020894148 -0.00368097 0.000208393 -0.0042095855 -0.0035413858 0.0015833983 0.0031047843 -0.0033475873 -0.0005388363 0.0053805565 -0.0039223633 -0.0026491228 0.0006778115 -0.0024762424 0.0013161409 -0.0044307266 0.00012394633 -0.001146056 0.0018975278 -0.0032031538 0.0033088652 -0.001694299 0.0016585878 -0.004211269 0.0005830777 0.0026927039 0.0034757566 0.0030637567 -0.0042078937 -0.0034431468 -0.004277622 0.004632478 0.0022897501 0.0013132626 -0.0049491706 9.875264e-05 -0.000624024 -0.003995918 0.0011365376 0.0014333703 0.0005226909
